nep4 3 Mg Sb Bi 
cutoff 6 4 45 15
n_max 8 8
basis_size 8 8
l_max 4 2 0
ANN 50 0
  6.8979561e-02
  2.8635569e+00
 -1.4343115e-02
  1.2086643e-02
  2.3394480e-01
 -1.9795636e-02
  3.3530575e-01
  2.3434219e+00
  1.1415216e-01
 -1.1278003e-02
 -5.8564041e-02
  6.0464099e-02
  9.7941227e-02
 -2.4400128e-02
 -1.0063454e-01
  3.7633859e-02
 -3.4053344e-02
  1.0535733e-01
  2.4902781e-02
 -9.2987396e-02
 -4.5238994e-02
  7.5045042e-02
 -1.4221807e-01
  1.4693876e-02
 -5.7091746e-02
 -1.5705356e-02
  4.5578876e-03
  9.5805321e-03
  2.5911901e-02
  7.6189019e-02
 -6.5129064e-02
  2.1536741e-01
  5.7778798e-02
 -7.0231341e-02
 -7.3381886e-02
 -4.9789831e-02
 -2.6246977e-01
  1.4238768e-02
 -3.9159498e-01
 -3.5679668e-02
 -2.7854517e-02
  2.6579719e-02
 -1.2519304e-02
 -1.4652344e-03
  1.4938736e-01
 -5.6154661e-02
  1.0609066e-01
  4.4340972e-02
 -4.3756416e-04
 -1.0521456e-03
  6.4163961e-02
 -2.1919905e-01
  6.3192517e-02
 -1.6176583e-02
 -1.2131178e+00
 -1.1263857e+00
  3.1573105e-01
  1.4823438e+00
  3.0022351e-02
  6.7443687e-01
  7.7352175e-03
 -1.0659734e+00
 -1.2227603e-01
 -1.3833441e-01
  1.6741496e+00
  4.3073473e+00
 -1.7952325e+00
  1.8088156e-02
 -1.4651110e-02
  1.0420938e-01
 -9.7095215e-01
  4.5795074e-01
  4.4204321e+00
 -1.9743910e+00
 -7.7472081e+00
  5.3250268e-02
  4.8868820e-02
 -9.1849886e-02
  9.8872286e-01
 -1.6971165e-01
  3.1294152e-01
 -3.6119920e-01
 -1.8869814e+00
  4.8658062e-02
  1.7436333e-02
 -1.1335185e-01
 -1.0672808e-01
 -8.6966175e-01
 -1.5074874e-01
 -6.5245814e+00
  3.0491496e-02
 -1.7749834e-01
 -3.7093487e-01
  1.1213958e-02
 -7.0489258e-02
 -3.2829843e-02
  2.8038574e-03
  1.0760359e-01
  4.1749451e-02
 -3.5347325e-01
  8.3101727e-03
  1.9640803e-01
  1.0600424e-01
 -9.7131453e-02
  1.0678298e-02
  3.5221837e-02
  1.2357710e-01
 -3.4830011e-02
  4.4233233e-02
  6.6175312e-02
  7.7349856e-02
  8.9704599e-03
  4.4280535e-01
  2.7650265e-02
 -1.4368656e-01
 -2.1468875e-01
  1.0311905e-01
 -4.6062324e-02
  3.2412879e-02
  1.5079966e-01
 -7.5658329e-02
 -7.0116510e+00
  4.6730962e-02
  1.4581698e-01
 -7.8210898e-02
 -4.0427595e-02
  2.4545845e-02
 -8.1893042e-02
 -1.5440917e-02
 -5.2397877e-02
  3.9310330e-01
  4.8053688e-01
  1.2692380e-01
 -2.1833977e-01
  1.5190287e-01
  6.5082135e-03
  4.8503682e-02
 -8.0976792e-02
 -1.8496215e-01
 -3.9742082e-02
 -8.1280351e-02
  6.8002015e-02
  4.2751700e-02
 -1.5583211e-02
 -1.0792183e-01
 -1.1585157e-01
  1.2337550e-02
 -8.7384105e-02
  5.6137424e-02
  1.4883431e-02
 -5.5647824e-02
 -4.0335631e-01
 -1.4275651e-01
 -5.0940812e-02
 -7.0478590e-03
 -4.5405686e-02
  2.4758104e-02
 -1.1334565e-02
  9.8641207e-03
  8.5590199e-02
 -8.8212162e-02
  1.0029280e-02
 -6.5584219e-04
  9.6316054e-02
 -5.0487887e-02
 -9.3926415e-02
  3.9460860e-02
 -3.4771683e-03
 -1.6552847e-02
  4.7572777e-01
 -1.6229092e+00
  2.3326449e-02
 -1.5709762e-01
  7.0268132e-02
 -6.1118759e-02
  6.7771211e-02
 -3.2259364e-02
 -5.4222919e-02
  1.2409143e-01
  1.4361029e-02
  1.5960509e-02
  7.8728691e-02
 -1.1859840e-02
 -1.5048701e-02
 -1.2962288e-01
  3.1760488e-02
 -2.3941239e-02
  5.7696067e-02
 -9.4327778e-02
  2.8983143e-01
  2.5334302e-02
  2.9325800e+00
 -7.4605785e-02
 -4.9741793e+00
 -3.3526476e-03
 -4.7697842e-02
 -8.1054243e-04
 -3.7625700e-02
  1.5884627e-02
 -4.0627714e-02
 -6.8533190e-02
 -8.5412681e-02
  5.7335213e-02
  5.1372893e-02
  2.5196937e-03
 -1.6134064e-01
 -7.5089239e-02
 -9.8631233e-02
 -1.2004129e-01
  3.7377711e-02
  4.7195733e-02
  4.5080982e-02
 -4.6911780e-02
  5.0264806e-01
  1.6093772e-02
 -1.5665236e-01
 -3.8271952e-02
  4.6363574e-01
  1.5441614e-02
  1.2803278e+00
 -3.9073899e-02
  1.0403420e+00
  1.5452085e-01
  7.5588375e-02
 -3.0727252e-01
  7.1147121e-02
 -4.4062980e-02
  1.6589755e-01
  6.9149919e-03
 -2.2898221e-03
  4.7413234e-02
 -2.5251932e-02
  3.6742142e-04
  2.5621328e-01
 -2.9754883e-02
  1.2207073e-03
  1.7513704e-02
  7.3633745e-02
 -8.5643798e-02
 -6.4641056e-03
  6.3369438e-02
 -1.2328129e-01
  1.7654328e-01
 -5.4453988e-02
 -6.3448556e-02
  2.2353839e-02
 -3.5612259e-02
 -2.8603194e-02
  1.0012607e-01
  1.2823376e-01
 -4.4908170e-03
  7.2703687e-03
 -4.0912263e-02
 -5.7666197e-02
 -1.2760569e-01
  2.9108884e-02
 -3.9325967e-02
  3.5832860e-02
 -1.8930759e-02
 -6.1995469e-02
  5.4483663e-02
 -4.9157884e-02
  6.9876261e-02
  4.7923420e-03
  7.3081985e-02
 -1.3949437e-02
 -3.0038012e-03
 -1.7595566e-03
  1.3087237e-01
 -2.4308760e-02
 -9.2481337e-02
  2.0109857e-03
 -7.2673529e-02
 -7.4497044e-02
 -5.9068203e-02
  2.8905058e-01
 -5.5572742e-01
  2.2745548e-01
 -1.3662128e-01
  6.3712224e-02
 -1.7707092e-01
 -2.0333538e-02
  1.2116639e-02
 -1.0661688e-01
  3.3043522e-02
  4.1021422e-02
 -2.8953761e-02
  5.4731876e-02
 -1.9820343e-01
 -8.7936617e-02
  1.8958606e-01
  3.3942323e-02
  3.1386357e-02
  2.6633999e-01
  7.0445924e-03
 -8.5364506e-03
  1.7818505e-01
  6.7618802e-02
  6.8744339e-02
  1.1621957e-01
 -3.1259966e+00
  5.6347286e-05
 -8.0740944e-02
  9.1205984e-02
 -2.2433072e-02
  5.3606745e-02
  4.9113855e-03
 -2.9766354e-01
 -2.7718959e-02
  6.6301362e-03
  1.7963730e-02
  2.5341429e-02
  1.6392621e-01
 -7.9784818e-02
  1.1408470e-01
  1.1225687e-01
  3.4311914e-01
  1.3940853e-01
 -3.7621103e-02
 -4.7522370e-02
  4.1920248e-02
 -1.7225695e-03
 -6.0296193e-02
 -4.2022284e-02
  3.0639967e-02
 -3.6941387e-02
 -4.8097971e-01
  8.4653581e-03
 -3.6468349e-02
 -1.0521635e-01
 -2.5700941e+00
  1.2850803e-02
 -1.6959976e-01
  5.9469861e-01
 -2.2084208e-02
  1.1623492e-01
 -7.0194393e-02
 -3.2095514e-02
  2.6994729e-03
 -5.4017995e-02
 -2.2119651e-02
 -2.0195197e-02
 -8.3328351e-02
 -2.7942972e-02
  1.5093154e-02
  6.0763124e-02
 -5.6237172e-02
  3.5352893e-02
  4.3523693e-01
  5.2911203e-02
 -3.8432244e-02
  3.6220044e-02
  1.5236898e-02
 -6.4808026e-02
  5.1650599e-02
 -9.2379726e-02
 -8.1623271e-03
  1.1526351e-01
 -2.5108749e-02
  8.3605647e-02
  2.3059430e-02
  1.4521538e-01
 -5.9237830e-02
 -8.9731880e-02
  3.0514445e-02
  4.1064482e-02
 -6.2359951e-02
  5.0830901e-02
 -1.1418764e-02
 -1.6122046e-03
  1.2041170e-01
 -9.8080032e-02
  1.0599856e-01
  1.0568344e-01
  2.1254409e-02
  3.8337998e-02
  5.1055662e-02
 -5.2701145e-01
 -1.6136659e+00
  4.8891925e-03
  1.2468726e-01
 -5.6602098e-02
 -5.7657442e+00
  7.8179799e-02
  1.7382827e-02
 -1.3627481e+00
 -5.5912331e-02
 -3.1950260e-03
  1.5554960e-01
  2.5357254e-02
 -9.3131766e-02
  9.6474543e-02
 -5.1701111e-03
 -4.2976595e-02
 -1.2559076e-01
  4.9344741e-02
 -5.1745367e-03
 -1.8150133e-01
  1.8708328e-02
  4.8002899e-02
 -2.5495151e-03
 -7.6848760e+00
 -1.2402569e-02
  2.0302840e-02
 -1.2330622e+01
 -1.6083206e-01
  5.8532324e-02
 -1.8510371e-02
  1.4147030e-01
 -7.6832278e-03
  3.2040562e-02
  1.6319167e-02
 -1.0718364e-01
  3.1863730e-02
 -8.9941108e-01
 -5.9480730e-02
  7.0364043e-02
 -2.3917414e-02
 -9.9395566e-02
  2.0849394e-02
 -2.3449617e-02
  2.9935588e-03
 -1.1490478e-02
 -4.7997307e-02
  1.2858252e-01
  1.0485549e-01
  4.7973927e-02
 -1.3735828e-02
 -5.5236336e-02
  9.7662956e-02
  2.7846680e-03
 -1.6816808e-02
  7.0953745e-01
 -3.0490980e-02
 -1.1068061e-02
  1.5463334e-01
  2.3212966e-02
 -2.1321718e-01
  1.4938025e-01
  6.7402728e-02
 -1.5905771e-01
 -1.6717029e-01
  3.9811656e-02
 -1.9253923e-02
 -4.5813110e-02
 -2.0126469e-02
  1.5001385e-01
 -1.0916229e-01
  4.7847025e-02
 -3.1327304e-01
 -2.5462046e-01
 -6.7197777e-02
 -3.6552038e-02
 -7.0678927e-02
  6.9878586e-02
  2.2680633e-02
 -1.9094774e-01
 -7.5154886e-02
 -7.6332070e-02
  3.4608830e-02
 -2.7166581e-02
  5.2800652e-02
 -6.9157921e-02
  1.7949686e+00
 -7.4768864e-02
  6.2034439e-02
 -8.8997133e-02
 -2.3386705e-01
  6.7326255e-02
 -1.0616159e-03
 -1.8181892e-02
  6.0179617e-02
 -5.7749283e-02
 -1.3193517e-02
  5.4672286e-03
  5.7911046e-04
  4.5125477e-02
 -1.0151980e-01
 -1.3952579e-01
  2.3429498e-02
 -2.3245439e-03
  3.7162611e-03
  3.1946145e-02
  8.3408564e-02
  3.2151144e-02
 -9.3288876e-02
 -3.4516707e-01
  4.0737468e-01
  1.0434963e+00
  4.4443408e-01
  6.1653018e-01
  1.4695879e+00
 -2.1310514e-01
 -6.7293599e-02
  9.1972172e-02
 -4.2241950e-02
  1.2394409e+00
 -6.8176491e-03
  2.6647002e-03
 -7.4537925e-02
 -4.2012497e-03
 -3.0451404e-02
 -3.2765191e-02
  1.1933777e-02
 -5.5966061e-04
 -3.2234429e-03
  1.2425080e-02
 -6.4388894e-02
  4.4587720e-03
 -1.0557037e-01
  3.1776868e-02
  2.4072316e-02
 -9.9263906e-02
  1.5081429e-01
 -1.1140801e+00
  1.5922408e-01
  5.5555891e-02
 -8.6187264e-03
 -2.7307931e-02
 -1.0289500e-01
 -8.0493614e-02
  8.0955243e-01
  2.0401245e-01
  4.5801058e-02
  1.7392184e-01
  9.0255708e-02
 -3.0479185e-02
  1.4807226e-01
  7.7022724e-03
  2.8607149e-02
 -8.1170283e-02
 -2.7398473e-02
 -4.4746462e-02
 -1.6372108e-01
  2.7220076e-02
  3.5019724e+00
 -3.3888765e-02
  6.1080333e-02
 -2.7128246e-02
 -1.6592609e-02
 -4.4333518e-02
 -5.4489154e-02
  5.0835595e-02
  2.0074850e-02
 -1.8305829e-01
  1.8882083e-02
  7.2947510e-02
  2.3814391e-01
  3.7709230e-01
  1.1407696e-01
  1.6199594e-03
  1.4969713e-02
 -1.1563677e-01
 -4.3005224e-02
  3.5032094e-02
  3.0282306e-02
 -7.0851184e-02
 -1.6662918e-01
  1.6822778e-02
  6.0848802e-01
 -1.7521208e-02
  6.4473465e-02
  4.7255080e-02
 -4.0155474e-02
 -4.6966150e-02
 -3.1614296e-02
 -2.8287644e-02
 -7.9688206e-02
 -2.3006966e+00
  6.8623282e-02
  1.0267936e-01
  1.5593658e-03
  8.6286604e-02
 -2.3698787e-01
 -4.7736641e-02
  4.7585882e-02
  1.8227965e-01
  7.4635730e-03
  2.5474198e-02
 -2.2530530e-01
  1.0589965e-01
  1.3731790e-01
  8.2204580e-02
  1.2063143e-01
  9.5330131e-01
 -6.6852130e-02
 -1.8124032e-01
  6.6045843e-02
  4.9086966e-02
  2.1547945e-02
  8.9210765e-03
 -1.8148825e-02
  7.5206645e-02
  2.0612195e-02
  2.2447284e-01
  2.1594463e-02
 -4.4392747e-01
  5.8921480e-01
  4.0102962e-01
 -2.5654373e-01
  2.4419844e+00
 -1.1782913e+00
  3.1344149e-01
  7.3012823e-01
  4.1008931e-01
  5.1519055e-02
  1.2602957e-01
 -2.8325561e-03
  8.3165430e-03
  9.8756507e-02
  1.2208716e-01
 -9.1348402e-03
 -1.5893845e-02
  1.4043805e-01
  1.0850742e-01
  2.3111990e-01
  1.5567133e-02
  5.6209665e-02
  5.2899399e+00
  1.0894840e-01
  2.8415464e-02
  4.2953808e-02
  2.3748869e-02
  5.8706317e-02
  5.3939760e-02
  3.6998048e-02
 -7.4288193e-03
  5.5749882e-02
  3.7980586e-02
  2.1759124e-01
 -2.8560564e-02
 -1.5941810e-02
  9.0394653e-03
 -1.2258296e-02
 -1.0409199e-01
  4.3364044e-02
  4.0031649e-02
  7.2234131e-02
 -3.0136064e-02
  3.1146787e-02
 -7.7879734e-02
  9.2674129e-02
 -4.4455629e-02
  5.2762933e-02
  3.0823229e-02
 -1.8303905e-02
  2.5212180e-02
 -9.0135589e-02
 -1.6836934e-01
 -1.0078606e-01
 -3.9116222e-01
  6.8383861e-01
 -9.3422599e-02
  1.4810733e-01
 -1.2847956e+00
  9.9239983e-03
 -4.5923308e-01
 -1.8522458e+00
 -6.8856764e-01
 -4.2514720e+00
  1.5798808e+00
  2.2864021e-01
  6.3292736e-01
 -6.7361009e-01
 -1.1684582e-02
  1.1807991e-01
  4.5947117e-01
  2.6167533e-01
 -1.1014873e-02
  3.0748922e-02
 -6.8054252e+00
 -1.0603794e-01
 -2.0536358e+00
  1.0040733e+00
 -3.8435265e-02
  1.2043943e+01
 -1.2082580e+00
 -2.5364959e+00
 -1.3419768e+00
  1.7638300e-02
 -3.0053144e-02
  7.9268597e-02
 -2.6273599e+00
  4.7615436e-01
 -3.0674957e-02
  3.6538965e-01
 -1.5515649e+00
  1.0135221e+00
 -2.7057337e-02
 -2.1970858e-01
 -2.2311808e-01
  1.6537930e-01
 -1.3484834e-01
  4.4358592e-02
  1.7144562e-01
  5.9417725e-02
  6.2540695e-02
 -1.1282383e-02
  1.1286968e-02
 -1.4741085e-01
 -5.9330784e-02
 -1.3478445e-02
 -2.1269682e-01
  1.0998565e+00
  7.5749853e-03
 -2.1338468e-02
  3.1670982e-01
  2.1122020e-01
  2.0108812e+00
 -2.1615961e+00
  3.0229917e-01
  3.9897558e-01
 -3.4129485e-02
 -1.7582959e-02
  9.8221175e-02
  5.0570276e-02
  2.2817524e-01
  3.6038928e-02
 -1.1561248e-01
  1.5411922e-01
 -5.4135468e-02
  2.0307845e-02
 -4.2486452e-02
  1.3538399e-01
 -2.6177898e-01
  9.0417303e-03
  6.4641093e-03
 -4.0242765e-03
  4.8617594e-02
 -2.3084085e-02
  5.9805531e-03
  8.7446822e-03
 -5.2761909e-02
  6.5494579e-01
 -2.1706037e-02
 -1.7882228e-02
 -1.5224502e-02
 -4.7908071e-03
 -7.5268687e-04
 -4.1735630e-02
 -4.7376238e-02
 -4.2976137e-02
 -2.1558953e-02
  5.6824660e-01
  1.4661929e-01
  3.5264321e-02
  7.5721052e-03
 -1.6124619e-02
 -1.2979905e-02
  6.8938464e-02
 -9.5819652e-02
 -8.5138375e-01
  8.1188053e-02
 -1.6280250e-01
 -1.3919149e-01
  1.3224640e-01
 -9.8854676e-03
 -1.2220584e-01
 -3.2425400e-02
  1.7759072e-02
  1.6607083e-02
  1.7306061e-02
  2.4245545e-01
  6.3323177e-02
 -1.4194334e-01
  4.5181084e-03
 -5.2037146e-02
 -2.4903849e-02
 -2.0363821e-02
  7.0025302e-02
  1.3589144e-01
  1.6882059e-01
  4.0555601e-03
  4.4864463e-04
  7.9156989e-03
 -8.9278735e-02
  8.5248370e-03
  5.0703451e-02
  9.2826307e-02
 -2.2465646e-02
 -5.5200301e-02
 -1.4546295e-03
  1.0918051e-01
 -2.9547021e-02
 -7.1983792e-02
  2.7795829e-02
  4.0958282e-02
 -8.9841686e-02
 -7.8252479e-02
 -6.9327720e-02
 -1.9634945e+00
 -4.2982921e-01
  1.4450321e-01
 -1.7440709e-01
  6.6465266e-02
  4.2949770e-02
  1.2553354e-01
 -4.9266059e-02
 -6.8295874e-02
  1.3263550e-01
  7.7901483e-02
  1.4496355e-02
 -2.5695218e-02
  4.0326018e-02
  2.7007338e-02
 -1.2973899e-01
 -4.5269355e-02
  6.4556554e-02
  1.1508442e-02
  1.8320978e-02
 -3.6155000e-01
  2.2768183e-01
  1.1629633e-01
  2.8295511e-01
 -1.4003658e-01
  2.4666667e+00
 -1.8100642e-01
 -4.9913687e-01
  2.9094283e-02
 -2.3152977e-02
 -1.4425024e-02
 -1.0860153e-02
 -1.3170571e+00
  1.3609057e-02
 -1.1676622e-01
  6.6134527e-02
  1.9340919e-01
 -2.4827274e-02
  9.5716736e-04
 -7.4458062e-03
  4.9195964e-02
  5.3466916e-02
 -1.2979200e-01
  1.8322131e-02
 -9.2483431e-01
  2.5959542e-02
 -4.8948815e-03
  1.4388067e-01
  1.9185679e-01
 -1.3379854e-01
  1.1592200e-01
  1.2588063e-01
  6.2823847e-02
 -1.8226616e-02
  1.3234034e-01
 -2.0802426e-01
  1.9822093e-03
 -1.8193692e-01
 -9.3063889e-03
 -1.0519744e-02
 -1.5049425e-02
 -6.5114652e-03
 -1.9769663e-01
  2.5461460e-03
  7.0104480e-02
 -1.9570419e+00
 -1.5145984e-02
 -1.1156683e-01
  1.4233156e+00
 -4.7519933e-03
 -2.1430780e-01
  1.0663586e-01
  4.9383238e-02
 -6.2509045e-02
  3.1971827e+00
  1.5259382e-01
  6.1101209e-02
  1.3921107e-02
  2.1816330e-02
  4.0156341e-01
  2.6655335e-02
  7.7185584e-03
  5.2477129e-02
  2.7901649e-02
 -6.4801194e-02
  1.3399745e+00
 -3.1078592e-01
 -6.7759678e-02
  2.0307209e-02
  6.8129050e-03
 -1.9898170e-01
 -4.8283376e-02
  2.9519808e-01
  8.4850311e-02
  4.8787635e-02
  3.0988280e-02
  4.8431352e-02
  5.9410809e-03
 -2.0326607e-02
  2.0237030e-01
 -1.3861257e-01
  8.6902574e-02
 -1.0296542e-01
 -1.9455080e-01
  3.1518545e+00
  1.2293683e-02
  2.1539058e-01
  1.9804310e-02
 -4.5130562e-02
  1.4759459e-01
  2.8737558e-02
 -1.4606711e-02
  1.8179020e-02
 -1.9773155e-02
  9.3308277e-02
 -2.7870545e-02
 -1.1654449e-02
  3.0047234e-02
 -3.0200563e-02
  4.9002506e-02
 -1.6890992e-01
  1.5553062e-01
  4.6117183e-02
  2.7971268e-02
  6.5044314e-01
  2.4321589e-01
 -1.1431654e-02
 -5.7778407e-02
  5.2338824e-02
 -1.9230875e-01
 -3.8291689e-02
  5.2953297e-01
  3.7203918e-03
  4.8743093e-01
  2.0717496e-02
 -3.3928820e-01
 -7.9447374e-02
 -1.4664669e-01
  2.1387078e-02
  6.9679776e-03
  1.1954936e-01
  4.6698328e-02
 -1.3565768e+00
 -1.7120957e-02
 -9.7391620e-02
  3.9761089e-02
  5.4633252e-02
  1.4435713e-01
 -1.2311011e-02
 -1.6961329e+00
  3.1570506e-03
 -3.9970327e-02
  1.8842192e-04
 -7.0882440e+00
 -1.2949470e-02
 -1.7411709e-03
 -6.0338014e-01
  3.5693031e-02
 -4.4335100e-01
  4.1475106e-02
 -7.8349337e-02
  9.3627879e-03
 -2.0226495e-02
 -6.4056695e-02
 -1.0121854e-01
 -2.5038227e-01
  3.8972719e+00
 -4.2523719e-02
 -2.0126078e-02
 -2.7481741e-01
  1.5105398e-03
 -9.1554835e-02
 -8.9938119e-02
  3.0030084e-01
  1.2071014e-02
  4.3828435e-02
 -9.1296267e-03
 -2.8144961e-02
  7.5374484e-02
 -9.2705481e-02
 -1.4654553e-02
 -2.8875250e-01
  4.1636005e-01
 -8.8009310e-01
 -1.0528886e-01
  4.6168081e-03
  1.2500371e+00
  6.4489372e-02
 -1.3669346e-01
  8.2767755e-01
 -6.3458318e-01
 -6.9022174e+00
 -1.1265793e+00
 -2.5325511e-02
  4.9224749e-01
  2.9808682e-01
  7.7325448e-02
  2.9009688e-01
 -3.5319763e-01
  9.4718382e-02
  1.5859045e-01
 -9.3666717e-02
  1.1886980e-01
 -5.5928450e-02
 -8.1024840e-02
  2.6870104e-02
 -6.1360132e-02
  3.7415668e-02
 -6.4499521e-01
  6.8350315e-02
 -2.4920942e-01
 -3.8607333e-02
 -6.1379474e-02
 -6.7486487e-02
  2.8948450e-01
 -8.1133977e-02
 -1.2204012e+00
  9.4800204e-01
  8.9381343e-01
 -1.5446520e-01
 -1.9679929e-04
  1.7649604e-01
 -5.9132136e-02
  1.1117461e-01
  1.5134479e-01
 -6.1560562e-04
  3.6827337e-02
  1.0547359e-01
  1.7364761e-01
 -1.9031489e-01
  6.1039560e-02
 -1.2940202e-02
  2.7405765e-02
  1.5253359e-01
 -1.0080446e+00
  1.8434259e-01
  1.8707469e+00
 -2.1778598e-01
  5.7859761e-01
 -3.0084444e-02
 -1.8432887e-01
  1.2483433e-01
  2.4484582e+00
 -3.4301594e-01
  1.4557837e+00
  4.1962139e-02
  2.2196496e-01
  1.0022391e+00
 -1.4416500e+00
 -1.4208994e+00
 -3.1302693e-01
 -1.0485700e+00
  7.8991765e-01
  2.1565761e-03
  2.7355286e-01
 -5.6785858e-01
  1.0389067e+00
 -5.3261542e-01
  2.3994298e+00
 -1.1752971e+00
 -1.4195310e+00
  1.2789233e+00
  7.6036936e-01
  5.2293140e-01
 -2.0221832e+00
  1.8093500e+00
 -1.5146445e+00
 -1.9604565e-01
 -3.8443236e-03
  1.3901688e-03
  1.3976012e-01
  1.8320187e+00
 -4.6314243e-03
 -1.4207879e+00
  5.7957955e-03
  7.0790797e-01
 -6.7137413e-02
 -3.5400666e-02
  2.6496524e-01
  1.0207113e-01
  1.6065791e+00
 -1.2934255e-02
  8.6358674e-02
  1.7245612e-01
  1.1892247e+00
  3.9018009e-02
 -1.6349504e-02
  1.6565025e-02
  3.5560496e-02
  7.7582657e-04
 -9.6710853e-02
 -1.2723150e+00
  5.5242006e-02
  9.6369302e-01
 -1.7411325e+00
  1.0493357e-01
  1.2664932e+00
 -1.3241731e+00
 -1.3803409e-01
  3.0664425e-02
  7.3244646e-02
  5.4659691e-02
 -1.8376039e-02
 -1.5689313e-02
 -1.0018866e-01
  1.4851621e-01
 -5.2490504e-03
 -3.7430011e-02
 -1.0750891e-01
  3.7646089e-02
 -6.5952241e-02
  2.1063024e-01
 -6.1470881e-02
  5.3118658e-01
  1.4329147e-01
 -6.5541202e-03
  2.2368126e-01
  2.5127914e-02
  4.2466959e-01
  7.6460525e-02
  1.2883066e-02
 -4.2643351e-03
  2.7602436e-03
  3.0364707e-02
 -1.6887958e-01
  1.0002179e-02
 -1.0199009e-01
  5.6566350e-02
  6.0356148e-03
 -6.2185030e-02
  2.6364722e-03
 -2.9617482e-01
 -4.6208482e-02
 -7.5805001e-02
  9.3644306e-02
 -1.0172366e-01
  8.2947791e-02
 -1.1668241e-02
 -1.2485690e-01
  2.9917099e-02
 -1.4250395e-01
  6.8501897e+00
  1.5019514e-01
  6.3629355e-03
 -1.3263270e-01
 -2.9514191e-01
  4.4117564e-01
 -2.6616538e-01
 -1.5455529e-01
 -7.2148189e-02
 -6.6927671e-01
  8.8320687e-02
 -1.1728508e-01
  3.0212104e-02
  4.9974132e-02
 -8.5734827e-03
  1.6176313e-02
 -1.0080355e-01
  9.9276472e-03
  5.1826086e-02
  4.4020727e-02
  2.7950010e-03
 -6.1882619e-02
  2.7431282e-01
 -6.7168861e-03
  2.2076711e-02
  1.1292939e-01
  4.7981061e-02
 -2.4243224e-01
  4.2844690e-02
  1.2568925e-01
  3.7397698e-02
  3.2918331e-01
 -2.1177839e-02
 -1.1153336e-01
 -9.0222642e-02
  2.8982727e-02
  1.3324180e-01
 -9.6314937e-02
 -1.3605784e+00
  2.1558167e-02
  3.7741516e-02
 -9.5869293e-03
 -3.0506358e-02
  9.7988527e-03
 -1.3740489e-02
  1.2507866e-02
 -2.2830371e-02
  2.6037204e-01
  1.0455239e-01
  6.4222488e+00
 -5.6353211e-03
  2.1932147e-02
  7.3693492e-02
  9.9081144e-02
  1.7196430e-02
 -1.7810935e-02
  4.1003156e-02
 -7.4751562e-01
 -3.5000139e-01
 -3.0663896e-01
 -6.7865156e-02
 -2.7984989e-01
  1.4665996e-01
 -5.7198125e-01
 -5.5114353e-01
  1.0882289e-04
  4.0169652e-03
 -4.2433074e-01
  2.1609418e-01
  3.8375014e-01
 -2.4160150e-02
  1.0223749e-01
  3.3896409e-02
 -3.3675992e-01
  1.9904011e-01
 -6.8882428e-02
 -1.9590179e-02
  2.6017640e-02
  6.3607022e-02
  1.3036055e-02
  2.4899421e-02
 -3.6896054e-02
 -5.1730990e-01
  2.5781682e-02
  2.6222479e-01
  9.9446809e-01
  2.3445444e-01
 -1.4816716e-02
 -5.7970595e-01
 -1.1015470e-01
  2.7797011e-01
 -3.0024990e-01
  1.1835469e+00
 -3.2843614e-01
 -1.2661572e+00
 -4.7436649e-01
  2.3691451e-02
  5.4513877e-03
 -2.4324558e+00
 -1.9499150e-01
 -2.6944229e-02
 -5.8218508e+00
  2.6885977e+00
 -7.9819583e-06
 -3.7647560e-02
  1.1520730e-02
  8.7564136e-04
  2.0615699e-02
 -7.0511830e-01
  1.5056209e-02
  1.4039983e-01
  5.5699474e-01
  6.4821862e-02
 -7.4699140e-01
  3.9225614e-01
 -2.9789034e-01
  6.9471911e-02
  6.8566576e-02
  4.5390543e-02
  6.0553581e-01
 -1.9814327e-01
 -5.6536231e-02
  1.0144336e-02
 -6.2358383e-02
 -2.7813554e-02
 -1.8108052e-01
  2.0293710e-01
 -6.0289532e-01
  3.1593539e-02
 -6.4710975e-01
 -5.6532240e-01
 -4.5602120e-02
 -3.4374423e-02
 -1.3785263e-02
 -2.4744004e-02
  2.0956397e+00
 -3.8136855e-01
 -3.9195661e-03
 -1.1725651e-01
 -3.2330123e-01
  1.5933292e-01
 -5.1264817e-01
 -5.4377127e-02
  9.5058210e-02
  3.1837028e-02
 -1.5903158e-01
 -3.3787721e-01
 -3.8109183e-01
 -1.2002299e+00
 -4.0809822e+00
 -8.5661046e-02
  1.7455846e-01
  3.6280241e-02
  4.1786748e-01
 -3.6477011e-02
  1.1659665e-01
  2.4804411e-02
 -1.2462734e-01
  1.3638025e-02
 -2.5030456e-02
  5.2034486e-02
 -2.1944244e-01
 -5.7000674e-02
 -3.8108606e-02
 -3.9681811e-02
  6.8278956e-01
  1.3634314e-01
  3.5613280e-02
 -1.1456640e-01
  1.1867671e+00
  1.1986683e-02
 -1.0167090e+00
  6.3248867e-01
 -1.9659643e-01
  4.1132154e+00
  9.6921690e-02
 -1.2486900e-01
 -7.8025865e-03
 -9.0453058e-02
 -6.3952766e-03
 -1.6441992e-01
  2.1574467e-02
  7.7625401e-03
 -4.4402499e-02
 -7.2851205e-01
 -4.0418670e-02
 -8.1286710e-03
  8.6381129e-04
  3.1276844e-02
 -9.6491061e-02
  9.1647290e-02
 -1.9067829e-02
 -2.7297337e-02
 -7.2578071e-03
 -7.8423478e-02
  6.5757081e-02
  1.2427105e-03
  4.8646722e-02
 -7.8392830e+00
  6.3905474e-03
  5.6247380e-02
 -2.9564882e-02
  1.3219993e-01
 -2.7867602e-02
  4.6135705e-02
  1.0886271e-01
 -4.3464429e-03
  2.8972970e-02
 -9.7183576e-03
  9.2238277e-02
 -2.2119619e-02
 -1.0048698e-01
  4.2579424e-02
  3.7423164e-01
  1.0830606e-01
  7.2690189e-01
  7.7715904e-02
  7.6166384e-02
  1.2834023e-01
 -2.4006834e-02
  1.7364250e-01
 -3.1780624e-01
  1.1713524e+00
  1.4551064e+00
 -6.0763559e+00
 -7.4104778e-02
  2.5205538e+00
 -8.7032568e-01
 -9.5320128e-02
  6.5179750e-02
 -9.5879957e-02
  5.0538491e-02
 -6.7910318e+00
  2.4948484e-01
  3.8372781e-03
  1.0756698e-01
 -1.2375929e-01
 -3.9813715e-01
  1.4751036e-01
  2.7960392e-02
  5.1895794e-02
  6.2780425e-02
  1.6066066e-03
  5.1092837e-02
 -4.5487367e-02
 -5.0543491e-03
 -6.4405218e-02
  8.7360784e-02
  2.8813925e-01
 -1.3487987e-03
 -4.8377968e-02
 -6.0779592e-03
  4.7510914e-03
 -7.1969323e-02
 -5.8142707e-02
 -1.5373433e-02
  3.4101508e+00
  1.9175571e-01
 -4.4241063e-02
  1.8270006e-02
 -1.5466711e-02
 -8.1295595e-02
 -1.7371055e-02
  8.2197011e-04
 -1.0556909e-01
 -4.4906925e-02
 -2.8857332e-02
 -2.0392718e-02
 -5.9071336e-02
 -3.3102762e-02
 -6.5265566e-02
  1.5125715e-02
  9.7238496e-03
  3.7059896e-02
  1.2326417e-01
 -5.6689277e+00
  3.4506321e-02
 -7.8196079e-02
  8.5756056e-02
 -6.8514012e-02
  4.1145010e+00
  3.0299036e-02
  9.5214337e-02
  1.0584602e-01
  8.2104836e+00
 -1.3346255e-02
  8.3944961e-02
 -1.3400966e-01
  3.2581359e-02
 -1.6261362e-02
 -2.3136729e-02
 -1.4627544e-02
  7.6726833e-03
 -1.3964894e-01
  1.8452662e-01
  6.3532062e-02
 -9.5888771e-02
  3.9719686e-02
 -2.3024552e-02
 -5.8610268e-02
 -2.3494972e-02
  2.7066212e-02
  4.7192371e-01
 -7.2480373e-02
 -1.6354756e-01
  4.6828013e-02
  7.0132047e-02
  1.4696817e-01
 -5.4589838e-02
 -1.0842891e-01
  1.4479978e-01
 -2.2685473e-01
  2.8545374e-02
  1.8064473e-02
  1.6017927e-02
 -7.2201513e-02
 -6.9169521e-02
  3.3248749e-03
  1.8353129e-02
 -6.6106237e-02
  1.8395990e+00
  1.5673265e-02
  9.6827922e-03
  2.0276967e-02
 -7.9241298e-02
 -5.1015537e-02
 -2.4205974e-01
  1.4424901e-02
 -8.2651514e-01
 -1.2219471e-01
  9.9441171e-01
 -1.4440221e-01
 -8.1041592e-01
 -9.8640424e-01
 -1.9743808e-01
 -1.7811817e-01
  9.5555494e-03
  8.4133983e-02
  9.0769660e-03
 -1.6320743e-02
 -2.6140827e-01
 -1.0977949e-03
 -1.8547894e+00
  4.8403689e-03
  3.6710970e-02
 -1.8763769e-01
 -6.5423590e-01
  2.1066846e-01
 -1.1333931e-01
 -2.0274987e-02
  2.9152641e-01
  4.5340940e-02
 -2.3032972e-01
  3.2560319e-01
 -3.0251220e-01
  6.2184453e-01
  3.3794060e-01
  1.1374354e-01
 -7.1694463e-02
 -5.2058682e-02
 -1.1572754e-01
  1.9499686e-02
 -8.0071045e-03
  1.2573996e-01
 -1.4509352e-01
  1.4920586e-01
  5.1174451e-02
 -1.7529611e-01
  9.1095753e-02
  1.6358697e-01
  4.0836170e-02
  2.6135242e-02
  5.7722425e+00
  3.0871600e-01
 -3.5615137e-03
 -8.1521273e-02
  2.3534688e-01
  4.5226235e-03
 -1.4651139e-01
 -1.4835297e-01
 -1.0098258e-01
  2.3509960e-01
 -1.5722314e-02
  9.0957135e-03
  2.0269906e-02
 -2.6816711e-01
  1.9945120e-02
  1.9480349e-01
 -2.7962995e-01
  6.4519078e-02
  1.2427430e-01
 -1.2564072e-01
 -8.3931871e-02
 -2.3759151e+00
 -4.3204881e-02
  4.4828944e-02
  1.8550321e-01
 -1.2172539e-02
  3.0221680e-01
  9.8465659e-02
  1.9459097e-02
 -4.3748356e-03
  5.5830595e-03
 -9.9991813e-02
 -2.0879328e-03
 -9.0328187e-02
  3.5708334e-02
  1.2473308e-01
 -7.0028804e-02
 -8.6724013e-02
  4.4117678e-02
 -3.9416101e-02
 -2.7524386e-02
  1.2740610e-02
  5.1273290e-02
 -3.0726883e-01
  1.1257832e-01
 -4.0224236e-02
 -5.8802566e-03
  6.4513884e-02
 -1.1601975e-01
 -1.0767148e+00
  7.3118098e-02
  1.1524446e+00
 -2.8180959e-02
  4.3238014e-02
  1.7479017e-01
  4.5324494e-03
  3.4506503e-03
  4.0279145e+00
 -2.9262615e-02
 -5.7108950e-02
 -2.4053757e-01
 -7.7560104e-02
 -4.0102091e-02
  1.1125493e+00
 -4.9209114e-02
  2.2030647e+00
 -6.8433799e-02
 -1.7859329e-03
 -5.7805389e-01
  2.1830764e+00
  2.7230221e-01
  7.8236043e-01
  1.5880497e-01
  1.3634026e-02
  8.4953662e-03
  4.1739352e-02
  1.2577341e-01
  6.3063717e-01
  3.2935210e-02
  9.1503859e-03
 -7.5703830e-04
 -4.0776667e-01
 -9.2169568e-03
 -2.3834705e-01
 -1.2982167e-01
 -4.1246256e-03
 -1.6396229e+00
  5.3187881e-02
  1.6362082e-02
 -8.4003825e-03
  1.7731635e-02
  3.8796699e+00
  3.1971663e-02
 -4.3051761e-02
  4.3923590e-02
  5.8146245e-03
 -4.4261575e-02
  8.0508068e-02
  5.2132118e-03
  1.2854600e-02
 -1.9226441e-02
 -2.0429244e-02
  1.0944793e-01
  2.3483633e-01
 -3.2024994e-02
 -7.0533916e-02
 -2.7408486e-02
 -1.6542980e-01
 -1.9321971e-02
  2.5875250e-01
  6.6530062e-03
 -7.6373555e-02
  4.6505444e-02
  7.0939936e-02
  2.3178920e-01
 -3.4935969e-01
 -1.5829666e-02
 -1.1118321e-01
 -3.8071224e-01
 -1.6399272e-02
  1.5567568e-01
 -1.5856527e-01
  8.3623387e-02
 -2.8528051e-02
 -2.3526093e-01
 -8.1353374e-02
  2.0444226e-02
  1.3285773e-03
  9.0065099e-02
 -6.3053975e-03
  1.6624475e-02
  9.7227491e-02
  2.3194302e-02
  7.8662574e-02
 -8.1509352e-05
 -9.7547863e-03
  8.7674506e-02
 -1.4295598e-02
 -2.4661949e-01
  2.6999002e-02
  8.6869560e-03
 -6.6762865e-02
 -9.6689396e-02
 -2.0156380e-02
  4.5526043e-02
  1.5709657e-02
  8.9753062e-02
 -1.1602717e-01
 -9.1052011e-02
 -1.8494483e-02
  2.1826086e+00
  8.1674032e-02
 -1.0679852e-02
 -9.5559910e-02
 -7.2652772e-02
 -6.7763314e-02
  8.4079407e-02
  6.9290724e+00
  8.4874537e-03
  3.6648177e-02
  1.0403484e-02
  1.3496149e-01
  6.6623136e-02
 -1.4319884e-02
 -9.3734749e-02
  4.0132958e-02
  2.0505807e-01
  2.7960772e-02
  8.1854537e-03
 -2.4523207e-03
  1.9201104e-01
  4.6852484e+00
  1.0367174e-01
  1.6521191e-02
 -5.3320874e-02
 -7.8330159e-01
 -1.1225904e-01
 -2.3378188e-02
  4.5097761e-02
 -6.6803835e-02
  1.3221388e-02
 -7.9685979e-02
 -9.9621862e-03
  8.5588381e-02
 -1.3474947e-01
  8.8876694e-02
  2.4260027e-02
  6.6454090e-02
  4.8656873e-02
 -3.0642325e-01
  1.2852341e-01
 -3.7634037e-02
  6.4551070e-02
  3.3056296e-02
 -1.0448549e-01
 -1.0851111e-01
 -1.0167687e-01
 -1.9489337e-02
  7.9214118e-02
  2.7149992e-02
  5.6541981e-03
 -3.2642704e-02
 -2.3627812e-03
  1.6282682e-01
  3.3777982e-02
  3.6722764e-02
 -1.1415698e-01
  8.5497245e-02
 -1.6538922e-01
 -1.4053404e-01
 -9.5636077e-02
  1.8518418e-05
  2.5198475e-02
 -1.4493500e-01
 -8.9650601e-01
  1.0040390e-01
 -1.0307166e-01
  2.4575464e-01
 -9.1901310e-02
  6.1713744e-02
  2.6679393e-02
  6.1156228e-02
 -1.5883258e-01
  2.9135128e-02
  2.4949830e-02
  5.9059042e-01
 -1.6774658e+00
 -9.3169212e-01
  1.6037931e+00
  1.3620148e+00
 -4.2069559e+00
  3.6258776e+00
  3.3426201e-01
 -3.2163908e+00
  2.6739951e-02
  2.9421482e+00
 -1.2679352e-01
 -2.3764683e-01
  2.2764109e-01
  7.2008714e-02
 -1.0762250e-01
  8.8766336e-02
 -3.0228555e-02
  1.1180446e-01
 -1.7034221e-02
 -6.4826287e-02
 -8.9837268e-02
  5.4109640e-02
 -1.3503557e-01
  2.5752550e-02
  2.0677947e-02
  5.0317258e-02
  1.7700240e-01
 -3.3657257e-02
 -1.0513090e-02
  4.3335009e+00
  1.5951181e-02
  6.4477958e-02
  3.1010669e-02
 -1.9551279e-02
 -4.4624299e-01
 -2.1237443e-01
  1.4062344e-01
 -9.8869294e-02
 -3.1532139e-02
  1.0755147e-01
  8.1670858e-02
  9.9034188e-03
  1.1754072e-02
 -2.8854248e-01
 -3.4400779e-01
  2.4467599e-02
 -2.0403331e-02
  1.6888523e-01
  2.1353510e-01
  7.0680790e-02
 -4.1587587e-02
 -1.0502044e-01
  1.0431886e-01
 -2.3727636e+00
 -5.2896523e-01
  4.4001386e-01
  1.5825623e+00
  5.6689399e-01
  6.4156547e-02
 -2.1904595e+00
  2.1551213e-01
 -2.6338732e-01
  1.4534650e-02
  5.9457444e-02
  6.9678098e-02
 -4.6576731e-02
 -1.0097484e-01
 -6.1146118e-02
  5.8258627e-02
 -3.2030106e-01
  4.7591053e-02
 -5.6058656e-02
 -1.4945035e-01
 -1.9642551e-01
  1.5124167e-02
  6.5179124e-02
 -2.3468797e-01
 -6.6614114e-02
  3.8229868e-01
  1.1738121e-01
  7.5864905e-01
 -1.0213808e-01
  1.3694376e+00
 -3.2194334e-01
 -1.2449009e-01
  2.2025645e-01
  7.3450864e-03
  1.3903914e-01
  5.1256704e-01
 -2.4631668e-02
 -3.6057091e-01
 -1.0385499e-01
 -4.5904897e-02
 -1.0469770e-01
  5.7835419e-02
 -1.4813574e-01
  5.3532470e-02
  3.2854271e-01
 -4.6662681e-02
  3.2393917e-02
 -9.8328732e-02
  6.2366366e-02
 -2.5468883e-01
  9.3307411e-03
 -1.0184607e-02
  7.1824521e-02
  7.0037507e-02
 -4.3367386e-01
  6.9993317e-02
 -1.1033862e-01
  1.8060361e-01
  1.8881305e-01
 -3.4078926e-01
 -7.5771201e-01
  3.7409252e-01
 -1.0235703e+00
 -8.0151939e-01
  5.1729691e-01
 -4.2426848e-01
 -8.8980854e-01
 -2.1060381e+00
  1.5452622e-01
  8.6636537e-01
 -3.6499596e-01
 -3.5166523e-01
 -2.2775834e+00
 -2.2750296e-01
 -1.9658405e+00
  1.6644964e+00
 -2.5835453e-02
  3.9938349e-01
  5.3454167e-01
  1.0626341e+00
 -9.4226521e-01
 -2.9501432e-01
 -9.2405921e-01
  3.5219651e-01
  3.9566448e+00
  2.3363757e+00
  1.4661862e+00
  4.1804686e-01
  6.4022785e-01
 -6.2703500e+00
 -2.8984995e+00
  6.1783582e-01
  3.6091020e+00
  1.7278922e+00
 -1.3086112e+00
  1.5469960e+00
 -2.0078003e+00
  2.0073886e+00
 -5.2209725e+00
 -9.3498075e-01
  3.4949335e-01
  1.0622603e-02
  8.5081804e-01
  7.5195074e-02
  2.5730990e-03
  1.3091468e-03
  1.1303354e-03
  4.0526348e-01
 -3.5770962e-01
  7.3323202e-01
  5.3187317e-01
 -5.4141753e-03
  5.0916992e-02
 -6.9849193e-01
 -2.6339706e-04
 -1.1803268e-01
  2.1498463e-01
  2.9608868e-02
  2.2071932e-01
  1.1409456e+00
  3.4724243e-02
  1.3769397e-02
  4.2734083e-02
  4.0447570e-02
  1.8555660e-02
 -2.9844126e-02
 -1.2522891e-01
 -9.5570041e-03
 -3.0779980e-02
  7.0243023e-02
  2.6196623e-03
  4.7309532e+00
 -1.2735921e-01
  1.3577307e-02
 -2.4929687e-01
 -9.2661060e-02
  5.1190802e-03
 -3.4619138e-02
  1.2318253e-02
  3.7847243e-02
 -1.7319402e-02
 -5.9039459e-02
  5.9271589e-02
 -1.8038671e-01
  2.8560624e-01
  3.0805880e-02
 -3.9320264e-02
  1.5291303e-01
  1.5811397e-02
  2.6496407e-01
 -3.0521045e-02
  1.0004157e-01
 -5.8359325e-02
  2.3698662e-01
  7.0458427e-02
 -3.7134185e-02
  1.8551429e-01
  1.0007128e-01
 -6.2356465e-02
  2.0740078e-01
  7.9595111e-02
  1.1237971e-01
 -8.3903931e-02
 -1.7452860e-01
 -3.6001244e-01
 -6.5038675e-01
  1.7100254e-02
 -4.1485864e-01
  1.8020279e+00
 -5.5731469e-01
  5.7444328e-01
 -2.8924190e-02
 -1.1544712e-01
 -8.7638633e-05
  1.6108669e-01
  3.5231321e-03
  1.8621871e-02
  1.8760997e-01
  1.5650918e-01
  3.8059944e-01
  3.1525474e-02
  8.3917212e-01
 -5.4338377e-02
  9.5372647e-02
 -1.4015943e-01
  7.7219011e-05
  1.1915558e-01
  7.2322078e-02
 -5.9233591e-02
 -1.6888041e-02
  3.5865027e-02
 -3.0424864e+00
 -5.5102941e-02
  1.3019085e-01
  1.9700724e-01
  1.1539296e-01
 -1.0344008e-01
 -1.4736885e-01
 -2.5072632e-02
  1.3968436e-01
  2.6523855e-01
  4.8200686e-02
  2.6512682e-01
 -8.5512482e-02
  2.4535376e-01
  3.2896897e-01
  6.1472812e+00
  2.2560906e-02
  2.8222877e-01
  4.3667745e-02
 -2.6068689e-02
  1.3741510e-01
 -2.0306082e+00
  2.7707949e-02
  2.7151532e-02
  1.0872568e-01
  1.3415747e+00
  8.5638529e-01
  3.8377175e-01
 -2.2306490e+00
  8.9049175e-02
  2.7115124e-01
  2.5208207e-02
  3.8582551e-01
 -7.3447859e-01
  7.9112574e-02
  1.1645500e-01
 -1.8397991e-02
 -2.1387949e+00
 -1.0837386e-02
 -2.4066590e-02
  5.7361029e-02
 -1.6087919e-01
 -4.7219981e-02
  3.0908771e-02
 -1.8779539e-01
 -6.1258852e-02
 -1.8313129e-01
 -1.2329048e-02
  9.6698232e-02
 -4.7018979e-02
 -1.8003368e-01
 -3.1636991e-02
  1.7753117e-02
 -2.5829587e+00
 -1.6226718e+00
 -1.5125667e-01
 -1.1901983e-01
  1.0163317e-01
  2.1062776e-02
 -2.3493299e-03
  1.2702939e-01
  2.2326970e-02
 -1.7837322e-01
  2.0003124e-01
  1.1438604e-02
 -1.5686247e-02
 -3.8869489e-02
  5.2384578e-02
  3.1894639e-02
 -7.9438269e-02
  5.6727755e-01
 -3.5681494e-02
  1.7960489e-02
  1.2564807e-01
 -5.8291968e-02
 -2.7247457e-02
 -1.2292617e-01
 -1.2019825e-01
 -1.0084552e-01
 -1.5830171e+00
 -2.3777871e+00
 -2.5756376e+00
  8.6636263e-01
 -7.6344436e-01
 -1.6944921e+00
  1.7241560e+00
 -1.0059994e+00
  1.3256508e-01
  5.5734944e-03
  2.1634049e+00
 -7.0134377e-01
 -6.4885169e-01
  5.8656625e-02
  1.0112722e+00
  1.0396540e-01
  2.8045908e-01
 -3.2631260e-01
 -3.3448607e-02
  3.3840067e+00
  2.9899130e-02
  1.8231764e-01
  1.0504936e+01
  2.1045868e+00
  6.7361541e-02
  2.1934900e+00
  2.1461662e-02
  5.2483089e-02
  1.1805830e+00
  9.2765898e-01
  2.3443396e-01
  1.4696905e-01
  1.9024637e-01
  1.0682615e-01
  1.7028232e-01
  2.1223940e-02
 -8.5128829e-02
  1.9567436e+00
  1.6343569e-02
  1.9707501e-01
 -3.7080359e-02
  1.3407101e-01
  8.1922002e-02
  2.8729230e-01
  5.2435999e-03
  7.7132732e-02
  6.3601196e-01
 -2.6627081e-02
 -6.8420037e-03
  5.7980571e-02
  4.7737351e-01
  1.8819993e-02
 -1.5036200e-01
  5.7333615e-03
  4.7764751e-01
  1.5419692e-01
 -1.0810156e+00
 -4.6706730e-01
 -6.2854183e-01
 -2.8040510e-01
 -1.6981262e-01
  1.5375160e-01
 -3.9129984e-01
  3.9271060e-01
 -7.2260863e-01
 -2.1980245e-02
 -1.2714391e+00
  1.4446231e-02
 -3.6338386e-01
 -8.8165268e-02
 -8.1245226e-01
  2.0071619e+00
  3.4722857e-02
  8.3539599e-01
 -3.4938031e-01
 -5.1275138e-02
  1.9617534e-01
  1.2015159e+00
  2.1857796e+00
  2.2771043e-01
  2.0532086e+00
  5.3694981e-01
  2.7585557e-01
  5.9057617e-01
  4.6896425e-01
 -1.9224212e-01
  2.1169581e+00
 -1.1989844e+00
 -1.5131272e-01
 -4.7608590e-01
 -1.2368932e+00
 -5.6551772e-01
 -9.0407073e-01
  2.2674216e-01
 -6.8279043e-02
 -1.0676639e-01
  1.0347265e-01
 -5.9650320e-01
 -6.9416630e-01
  1.1805530e-01
  1.3816359e-02
 -4.8989086e+00
 -7.0788093e-02
  2.0535901e-02
 -3.3186063e-02
  4.3775190e-02
 -3.2801976e+00
  2.5965646e-02
 -5.9229977e-02
  1.3819894e-01
 -2.8979855e-02
  3.3596534e-01
 -2.0744868e-02
  3.0170879e-01
 -1.4323427e-01
 -4.5755589e-01
  2.2675191e-01
  4.1182004e-02
  1.4379960e-01
  8.9881822e-02
  3.1037235e-01
  4.3874778e-02
  7.6624616e-03
 -2.4651274e-02
 -9.6741125e-02
 -7.0758358e-02
 -1.6848511e-01
  2.4458377e-02
 -5.7510395e-02
  5.8296160e-03
 -1.8993804e-02
 -3.8017842e-01
  5.4888465e-02
 -3.9691474e-02
 -7.8377098e-02
 -2.3248199e-02
 -5.1355496e-02
  7.1949899e-02
  1.9979985e-02
  1.5403413e-02
  5.4888860e-03
  6.1588891e-02
 -2.5050312e-01
  1.3535407e-02
  8.5631996e-02
  9.3441326e-03
  2.1336693e-01
 -8.1025949e-03
  5.0927992e+00
 -3.4987926e-05
  8.8211924e-02
  1.3486589e-01
 -1.8705955e-02
 -3.4549825e-02
 -1.1999182e-01
  7.2620250e-02
 -5.2728813e-02
  6.6777609e-02
 -8.8417701e-02
 -8.9327112e-02
 -5.1907025e-02
  5.5564139e-02
 -3.0750525e-01
 -1.0621516e-01
  3.4084879e-02
 -1.3008890e-01
 -1.5095700e+00
 -4.7569171e-01
  3.3598980e-01
 -8.9189090e-02
  3.0679354e-01
 -1.5614955e-02
 -3.7044395e-02
 -1.3293138e-01
 -6.4295702e-02
 -6.5429665e-02
  2.7532740e+00
  2.0726033e-02
 -6.5906733e-02
  5.3604353e-02
  3.3304669e-02
 -9.5316224e-02
  3.0153918e-01
 -5.5366641e-01
 -2.2376290e-02
 -1.2167782e-01
 -2.2176550e-01
 -5.3486945e-03
 -2.7315224e-02
 -3.0374199e-01
 -2.8407124e-01
 -3.2563296e-01
 -5.1467385e-02
 -3.2816593e-02
 -4.4448916e-02
 -1.7922783e-01
 -2.9894117e-02
  3.7634667e-02
  4.1852783e-02
  4.4088591e-02
 -4.7504012e-02
 -8.6282745e-02
  2.8437791e-02
  1.3867263e-01
 -6.3948333e-01
  1.4475964e-01
 -3.1720746e-02
  3.9025474e-02
  2.3895305e-02
 -1.0546263e-01
  1.1600797e-01
 -9.5675401e-03
 -6.0292475e-02
  3.9130333e-01
  1.1382733e-01
  6.0879517e-02
  5.8152199e-01
 -2.2493450e-02
  9.7865775e-02
 -1.6086744e-02
  1.6171993e+00
 -2.6526606e-01
 -2.1772750e-01
  9.0413433e-01
 -2.7738973e-01
  8.3373502e-02
  2.1942443e-01
 -1.4637129e-02
 -3.6920899e-01
 -5.9485175e-03
 -5.5977039e-02
 -5.5355167e-01
 -4.0028188e-02
 -5.7392019e-01
 -5.7880592e-01
 -4.3367930e-02
 -4.1265807e-01
  9.8314853e-03
  1.3382761e-01
  5.5188698e-01
  1.9328352e-02
  1.4712064e-01
 -6.7297630e-02
  4.7789508e-01
 -1.3964999e+00
  6.8652004e-01
  1.2724169e-03
 -2.0799520e+00
 -3.9454352e-02
  4.7883075e-02
  5.3589709e-02
 -3.0665562e+00
 -8.1812024e-02
 -1.9899165e-02
  1.3071269e-01
 -3.2493240e-01
 -7.7529989e-02
 -3.9903731e+00
  9.9626124e-02
 -3.8932499e-01
 -1.4821609e-02
  1.9669113e-01
  1.7046824e-01
 -1.1880121e-01
  1.5034817e-01
  3.2063212e-02
 -6.7374296e-03
  1.6655274e-02
 -6.9343686e-02
  2.6984189e-02
  2.6469478e-01
 -2.8917890e-02
  2.9708177e-02
  2.5403790e-02
 -3.7952575e-01
  4.1842036e-02
  2.8460252e-01
 -3.6709556e-01
  5.4389868e-02
  1.5288907e-01
 -4.0592965e-02
  1.2415286e-01
 -3.1018099e-01
 -6.4044893e-02
 -6.9051713e-02
  1.2913157e-01
  1.0250310e-02
 -3.5879524e+00
 -1.5325190e-01
 -1.6818957e+00
  3.6661573e-02
 -4.1960139e-02
  9.6698940e-02
 -5.1677382e-01
 -1.1047136e-02
 -1.7261402e-01
  2.2362843e-02
 -6.0121018e-02
  4.2271509e+00
  6.2541939e-02
 -1.1951219e-01
 -2.3245720e-02
 -8.2400352e-02
 -3.8982248e-01
  9.4865765e-03
 -1.2401076e-01
 -9.8557984e-03
 -1.6915575e-02
 -6.0908172e-02
  9.8400395e-03
 -1.2827173e-01
 -3.8506870e+00
  1.4394362e-03
  3.4100380e-02
 -1.6143828e-03
 -1.2135644e-01
 -2.7323281e-02
  4.4176951e-02
  1.3194388e-01
 -3.7788954e-02
  2.7862094e-02
 -1.5538436e-01
 -1.5060118e-01
  2.4012893e-02
 -1.9480400e-03
 -1.4655510e-01
  5.5456722e-01
 -1.1476741e-01
 -1.1415166e-01
 -1.2047172e-01
  1.9379859e+00
  1.1488253e-01
 -5.9197113e-02
 -4.2366520e-02
  1.1757854e-01
  1.0619761e-01
 -9.7358845e-02
 -1.2530315e-01
 -1.2819383e-01
  6.1169150e-03
  1.4238138e-01
 -2.8180422e-02
  3.0219347e+00
 -8.0993995e-02
  6.1188810e-02
  1.0642620e-02
 -6.8629816e-02
 -2.1046492e-01
 -7.3878597e-03
 -1.0828444e-01
 -4.6679288e-02
 -1.1870394e-02
  8.2350418e-02
 -5.4228459e-02
 -2.9265052e-01
  6.9612227e-02
  1.7643803e-01
  2.4228138e-01
 -8.6817659e-02
 -1.8195573e+00
  5.4642603e-02
  8.1427030e-02
  3.2708430e-01
 -1.2388618e-03
 -1.0324284e-01
 -4.1750219e-02
 -1.0167678e-01
 -1.2375755e-01
  2.9170463e-02
 -3.3010438e-02
 -4.7486220e-03
 -6.8629217e-01
  7.8069605e-02
 -1.5954874e-01
  8.9215815e-02
 -3.4714467e-04
  5.3341452e-02
 -3.1248260e-02
 -5.4754024e+00
 -2.1729345e+00
 -6.2059627e+00
  3.4191849e+00
 -2.5796952e+00
  4.5841962e-01
 -1.5309703e+00
 -4.8975234e+00
 -1.6649864e+00
  4.2908676e-02
 -1.3670930e-01
 -4.7344065e+00
 -3.3001618e-03
 -1.4148393e-02
 -5.1820025e-02
 -1.1667060e-01
 -1.3281157e-02
  7.0997171e-02
  1.8287512e+00
  2.7783626e-01
  1.5320839e-01
 -3.7200537e-02
 -7.0737667e-02
  1.6930418e-02
 -1.3553615e-01
  2.8510509e-02
  1.6450243e-02
 -6.2788525e-03
 -1.3533701e-01
 -1.2234848e-01
 -4.3312583e-02
 -2.1712649e-01
 -9.6853012e-03
 -6.1500326e-02
  1.0081055e-01
 -2.4925647e-02
  1.9683212e-01
 -6.0187054e-01
 -1.5294162e-02
 -1.2341256e-01
  5.3410500e-02
  2.2789411e-01
  4.6197901e+00
 -2.6388478e-01
 -3.2331891e+00
 -9.5037743e-05
  1.8929015e+00
  4.3914303e-02
 -1.3672468e-01
 -5.0992779e-02
  3.6913481e-02
  4.9878143e-02
 -7.3037103e-02
  7.7854521e-03
  3.3475897e-01
  4.6432695e-01
 -3.9908367e-01
  6.8143404e-01
  4.4116997e-03
  4.3462226e-01
 -1.0963022e+00
  4.0765068e-01
 -1.3071249e-01
 -2.0931091e-02
  1.0336395e-01
 -4.1806619e-03
  8.5409954e-03
  8.8155262e-02
  9.1957130e-02
 -7.8850120e-02
  1.6664412e+00
 -3.1178406e-01
  1.5155538e+00
  2.1960691e-01
  7.0085323e-01
 -5.4299891e-02
  2.5147567e-02
 -2.8024560e-02
  1.5981555e+00
 -3.2792292e+00
  1.2237452e+00
 -1.3273480e+00
 -5.8278722e-01
  7.2023374e-01
 -4.6973959e-02
 -5.7611352e-01
 -1.3621423e+00
 -4.1163441e-02
 -1.3739233e+00
 -5.4063087e+00
  4.3381578e-01
  8.5658991e-01
 -7.7954262e-02
  1.1536103e-01
  2.0367581e-01
 -3.8244002e-02
 -1.0166110e+00
  6.2439877e-01
  1.6948092e+00
  7.5072475e-02
  1.2659342e-02
 -4.5720812e-02
 -6.1070226e-02
  5.5391528e-02
  5.2611534e-03
  9.0536684e-02
 -7.6917924e-02
 -1.0445806e+00
 -3.5436144e-01
  1.9965568e-03
 -4.6017703e-01
 -2.7520195e-01
  7.4650392e-02
 -1.8790880e-01
 -2.5015075e-03
  1.7966650e-02
  9.9784054e-02
  2.2233182e-01
  4.4976525e-02
  9.3803681e-02
 -3.2771520e-02
 -1.3325900e-02
 -5.8706734e-02
  3.1820321e-01
 -3.1780851e-01
  1.6999036e-01
 -2.3848118e-01
 -6.4893574e-02
 -3.0224238e-02
 -1.3781524e-01
  1.5663809e-01
 -9.0738460e-02
 -3.0882828e-02
 -2.5948072e-02
 -2.4569184e-02
  7.2769432e+00
 -4.4381776e-01
  5.0409394e-03
  7.1903877e-02
  7.9832725e-02
  2.4238111e-01
 -2.0171868e-02
 -1.6343804e-02
  9.0315543e-02
 -1.4373589e-01
 -2.0457885e-01
 -2.3637617e-02
  1.0777144e-01
  2.1705584e-01
 -1.0238173e-01
 -6.0721025e-02
 -2.7637404e-01
 -9.8928832e-04
 -7.8104883e-03
 -2.8129991e-03
 -2.3122375e-01
  7.4591398e-02
  1.0048101e-03
 -5.0425172e-02
 -2.3349633e-02
 -4.8430558e-02
  9.6976526e-02
 -1.5334244e-01
 -7.2824746e-01
 -2.3020865e-02
 -8.6758208e-01
  1.2265633e-01
  1.5193294e-01
 -3.8662663e-01
 -1.8032360e-01
  4.1081735e-01
 -4.8265316e-02
 -2.2922946e-02
  2.5345626e-01
  9.7923480e-02
  2.8246404e-03
 -1.2695816e-02
 -2.1587798e-01
  1.4452802e-02
  3.2773226e-02
  2.0340328e+00
 -4.7830444e-02
 -4.2735353e-02
  2.4518028e-02
  2.7179992e-01
  1.8235135e-01
  2.6565719e-01
 -2.4756094e-02
 -2.1055784e-02
 -6.2991142e-02
  1.3225460e-02
 -2.3481252e-02
  7.0069097e-02
  7.4325548e-03
 -5.8973398e-02
 -1.7669667e-01
  1.9124011e-03
 -6.7207265e-01
  1.3365836e-01
  1.9377366e-01
 -1.3142191e-01
 -6.2464707e-02
  7.4034855e-02
  4.0259445e-01
  4.5063820e+00
 -3.4942858e-02
  3.3106796e-02
  1.7063421e+00
  4.7884011e-03
  5.7453845e-02
  1.1883807e-02
 -1.8752266e-02
 -1.6869148e-03
  3.6167677e-02
  2.1444336e-02
  2.0062121e-02
  8.3990060e-02
  2.6424797e+00
  4.0042597e-01
  1.7042661e-01
  3.7730592e-01
  1.4412503e-01
 -1.1334314e-01
 -1.6153882e-01
 -7.7924401e-02
  1.7502228e-02
 -7.0116019e-01
  1.0107405e-01
 -4.7517337e-02
 -4.3837581e-02
  2.0116888e-01
  4.0724825e-02
  4.0789731e-02
 -2.1187137e-01
 -2.5837669e-02
 -1.2050894e-02
 -5.7962635e-03
  1.7133224e-03
  1.1186130e+00
 -1.6334838e-01
  2.4027165e-02
  1.3047522e-01
 -1.0170549e+00
  4.4220743e-01
 -2.5869949e-02
 -1.7315677e-01
  1.1657757e-01
  1.0793769e-03
 -5.7613802e-01
 -3.6235544e-01
  1.5694390e-01
 -3.6797486e-03
  1.8129782e-01
  6.9688879e-02
 -8.5990362e-02
  9.2557810e-02
  4.0303055e-02
 -2.0516696e-03
 -6.7127161e-02
 -6.9842145e-02
 -2.0817809e+00
 -1.8102882e-02
 -6.9246806e-02
 -4.2388968e-02
  1.0352409e-01
 -2.5054714e-01
 -1.0753559e-01
 -3.3070032e-02
  1.5176455e-03
 -1.2992352e-02
 -1.7420627e-02
  1.0778818e+00
  7.7127479e-02
 -2.2277186e-02
 -4.2817183e-02
 -2.2172894e-01
 -1.6153961e-02
  1.4294637e+00
  1.7435111e-02
 -1.1537621e-02
 -1.0707235e-01
  2.6369448e+00
  2.3880332e+00
  8.2854211e-02
 -1.7944559e-02
 -7.6904826e-02
  2.3558848e-02
 -4.0901235e-01
  9.2158914e-02
 -1.8767849e+00
 -5.1014996e-01
  2.1589698e-02
 -1.8997931e-01
 -7.6875560e-02
  6.1872840e-02
 -7.6220915e-02
  4.0187594e-02
  4.7503495e+00
  5.8760818e-02
 -3.7577772e-01
  7.2536855e-03
  1.1477012e-02
 -5.6369632e-01
 -4.5746870e-04
 -5.0262600e-01
  3.9418107e-01
 -3.8020858e-01
 -2.6208150e-01
 -2.2362256e+00
 -1.9983615e-01
  1.2870319e-02
 -2.3561418e-01
  1.0684676e+00
 -1.3610257e-02
  2.8916035e-02
  1.8956292e-01
  4.6151319e-01
 -1.3150299e-01
  1.0447710e-01
  4.9023110e-02
 -4.4222209e-01
 -7.6016732e-02
  1.6183512e-01
 -1.7463569e-02
  2.1981308e-01
 -1.7132336e-02
  1.6879870e-02
 -4.6850247e-03
  5.2259322e-03
 -3.7749609e-01
  3.2853477e-02
  1.0601563e-01
 -5.5608213e-01
  1.0995211e-01
 -1.3040187e-02
  8.8164240e-02
 -3.4161299e-03
 -9.6634634e-02
  1.0513371e-01
 -2.8246737e-01
 -2.4520774e-01
  6.9188334e-02
  1.5359017e-01
 -7.2292842e-02
 -6.9102907e-01
  3.1043008e-02
 -2.1793203e-02
  1.1232857e-01
 -3.7715111e-02
 -2.6822519e-01
 -2.0591475e-02
  1.1263970e-02
  1.9582428e-02
 -6.1048502e-01
  7.0275897e-01
  1.3237040e-02
 -7.1087742e-01
 -3.9246613e-01
  8.6666942e-02
 -8.5617864e-01
  2.4199890e-02
 -2.8876191e-02
 -1.7001574e-01
 -3.4280445e-02
  4.9030475e-02
 -9.3600667e-01
  9.4591245e-02
 -4.3501168e-02
  5.5517089e-02
  3.1046430e-02
  7.7102869e-03
 -9.2637390e-01
 -5.9569009e-02
 -1.2720614e-02
  2.9763323e-01
  8.1786525e-01
  4.3034963e-02
 -3.1056046e-02
  1.8131381e-01
  1.2927590e-01
 -5.2793412e+00
 -9.6025504e-02
  1.0631466e-01
 -1.0065574e-01
  8.3653733e-02
 -6.3614557e-03
  3.8976092e-02
  7.0008129e-02
  1.3431358e-01
 -1.0618853e-01
  2.5922805e-03
  3.2429997e-02
  2.7389440e-01
 -9.9114418e-02
  5.0410144e-02
  1.3377722e-02
  6.5335855e-03
  5.5448417e-02
 -1.3840948e-02
  4.4669346e-03
  1.3620163e-02
  2.6896763e-01
 -4.0272776e-02
  8.6483561e-02
  1.6222051e-01
  3.1234169e-02
  3.1607717e-02
 -1.0450322e-01
 -1.6984098e-02
  4.3337410e-03
  1.7476683e-02
 -7.0680417e-03
  4.9993277e-01
 -3.4466960e-02
 -1.2311642e-02
  1.1588738e-02
  2.6087887e+00
 -5.2590162e-02
 -6.5711163e-02
  5.5108730e-02
 -1.9662410e-03
 -3.2409597e-02
 -3.0877318e-02
 -2.1537420e-01
  1.3722500e-02
  9.7939081e-02
 -3.4466404e-02
  7.0712432e-02
  1.7937756e-03
  7.4926442e-01
 -9.5517173e-02
 -3.6002763e-02
 -4.2975206e-02
  2.4128390e-02
  8.2683057e-02
  1.4568428e-02
  1.1952503e-03
  1.6276741e-02
 -1.5049301e-02
  1.3611093e-01
 -2.0515263e-02
  5.1907700e-02
 -1.1966629e-01
 -1.9395857e-01
  5.9058316e-02
 -6.0820770e-03
  4.8085004e-03
  3.1031638e-02
 -1.8652968e-02
 -1.8901423e-02
  7.6927980e-03
 -2.7970159e-03
 -2.5165720e-02
 -5.1801018e-03
  5.9685029e-02
 -9.5413786e-01
 -6.4760029e-02
  9.0067013e-04
 -1.8152924e-01
  9.4346777e-02
 -1.4686410e-01
 -3.0375458e-02
  8.4048368e-02
  5.1999070e-02
  4.7890298e-02
  1.1719255e-02
 -3.4137368e-02
  2.8668684e-01
  4.2391129e-02
 -6.6883616e-02
 -2.7814406e-01
  5.9618536e-02
 -1.0231842e+00
 -4.2085480e-02
  6.4648464e-02
  3.1008584e-02
 -9.2613593e-02
 -9.6119165e-02
  2.5981562e-03
 -5.1714125e+00
 -1.4615011e-01
  3.8359236e-02
  7.8798011e-02
  1.8096721e-02
  3.5459280e-02
 -1.5750928e-01
 -1.2960763e-01
  5.1137146e-02
 -4.1315671e-02
 -1.2662275e-01
  1.0734412e-02
 -1.0474915e-01
  4.1311610e-02
  3.9949130e-02
  1.1317842e-01
  3.8883090e-02
 -1.1355023e-01
  3.3929981e-02
 -1.0297870e-02
 -2.6978038e-02
 -2.0533210e-01
 -1.9820970e-02
 -1.2739678e-03
  9.6288025e-02
 -5.1201612e-02
  9.6624391e-03
  5.8035508e-02
 -1.8983144e-01
  9.4639268e-03
 -4.5085251e-02
 -1.0572752e-01
  1.5943706e-02
  2.3153149e-02
 -2.2288594e-02
 -9.3212463e-03
  3.2821417e-02
  1.2895989e-01
  1.0608283e-01
  2.8601844e-02
  2.0564675e+00
  8.5046753e-02
  1.7446671e-02
  4.1855693e-01
  4.7334995e-02
  4.7175884e-02
 -1.5602878e-01
  1.1778703e-01
 -1.6077162e+00
  1.6326854e-01
 -8.9787524e-03
 -4.4709906e-02
 -5.8457658e-02
 -8.3851308e-02
  4.2534363e-01
 -5.5932111e-01
 -1.3475399e+00
  1.8588103e-01
 -6.8502885e-01
  3.3186425e-02
  9.5223433e-01
 -5.3859703e-02
 -1.2502796e-02
 -8.4307015e-02
 -3.4370162e-02
 -8.6577874e-01
  7.5107659e-03
  2.3869585e-02
  8.4329747e-02
 -2.8561825e-02
  3.7348099e-02
 -6.7616068e-03
 -7.9054701e-01
 -5.0095879e-02
 -2.1940170e-01
  1.1368205e-01
 -2.4729867e-01
 -1.4737716e-02
  2.3580980e-02
 -1.2768531e+00
  2.6221221e-02
 -1.4473821e-01
 -4.9504526e-02
 -5.7311469e-01
  9.4775129e-03
 -3.5435045e-01
  1.3900359e-01
 -4.8337929e-02
  1.7910306e-01
  3.5290304e-01
  2.1679354e-01
 -5.3108446e-03
  5.0651731e+00
  7.7712375e-01
 -3.3590555e-02
 -1.0698993e-01
  1.2066200e-01
 -4.5459922e-02
 -6.1173905e-03
  3.1517372e-02
 -3.7881937e-02
 -4.5585823e-01
  1.1356281e-01
  1.6966479e-01
  1.9252118e-01
  4.0370238e-01
  1.2236281e-02
 -8.8723660e-02
 -4.6089711e-03
 -7.6469487e-01
  6.1247826e-01
  6.0341597e-01
 -6.8406910e-01
 -8.3850539e-01
 -4.0180650e-01
 -5.6181937e-01
  3.8590811e-02
  4.8221582e-01
 -3.0514032e-02
  2.8544649e-01
  3.7671560e-01
 -5.5977657e-02
 -1.0853170e+00
 -7.1505114e-02
 -2.5962507e-02
 -1.5016288e-01
 -1.2191402e-01
  1.5306250e-02
  1.2352894e-01
  2.3479986e-01
 -1.3973017e-01
 -4.6951011e-01
 -4.6415734e-01
  1.3033220e-01
 -1.7187619e-01
  2.3817073e-01
 -8.1400111e-02
  1.4074908e+00
 -9.9812752e-01
  4.1754666e-01
 -2.0135446e-01
  3.5395268e-01
 -4.3261215e-01
  6.1670621e-03
  2.3957147e-01
 -5.3823620e-02
 -3.2523122e-02
  2.3773773e+00
  1.6446038e-01
 -3.1884077e-03
  4.8164435e-02
  6.9810607e-02
 -7.2541852e-03
 -1.1869242e-01
 -2.5607655e-02
  2.5921168e-02
  1.1858088e-01
  1.2108562e-01
 -2.0304274e-02
 -1.3828769e-01
  2.2761841e-01
 -5.2225590e-01
  1.0242029e-01
 -1.6704075e+00
  1.4199795e+00
 -5.0106668e-01
 -7.0598328e-01
  2.2343940e-01
  1.5476991e+00
  1.5732154e+00
 -1.0834656e+00
 -3.9084920e-01
  9.1408752e-02
 -1.1021565e+00
 -3.5462707e-01
  6.1183512e-02
 -3.7809473e-02
 -4.0838018e-01
 -2.5883069e-02
  1.7586737e+00
 -5.2331960e-01
  1.1728684e+00
 -8.9535564e-01
 -1.1580931e+00
  4.8516837e-01
 -6.2487447e-01
 -2.4772888e-01
  9.5793235e-01
  1.3016586e-01
 -2.2629731e+00
 -1.0592464e+00
 -3.4335614e-03
  2.1599383e+00
 -7.6636678e-01
  7.6777399e-01
 -1.8405328e+00
  1.1250701e+00
  4.6013668e-01
 -3.3656213e-01
 -2.1701801e+00
 -2.6430780e-01
  2.0098087e-01
  4.5116180e-01
 -1.6424187e+00
  2.1984408e+00
  2.7282104e+00
 -1.5198348e-02
  8.8039035e-01
  9.3517083e-01
  2.0676276e-01
  1.0226308e-01
  6.6793299e-01
 -2.3884463e+00
 -8.4211029e-02
  2.3821421e+00
 -3.0896029e-01
  9.1875714e-01
  2.1970713e+00
 -3.3879256e-01
 -2.9049903e-01
  8.9955080e-01
 -9.2131943e-02
  4.8729199e-01
  1.4376507e+00
  7.8954652e-02
 -9.2515267e-02
  5.7911221e-02
  2.5704023e-01
 -9.4548911e-03
 -5.9185654e-02
 -3.4716699e-02
 -4.4038976e-03
 -8.2642384e-02
 -8.5028149e-02
 -2.2322614e-02
 -3.1576544e-02
 -6.1364794e-01
 -8.0174088e-02
 -8.9177430e-02
  1.9823797e-02
 -6.2338553e-02
 -4.7115449e-02
 -2.1953069e-01
  6.3158339e-01
  4.3297868e-02
  2.3299426e-01
 -2.2215849e-02
 -6.3168478e-01
 -9.7994030e-02
  2.8027652e-02
  2.9234214e-02
  8.5972473e-02
 -4.0252563e-02
 -5.1295709e-02
 -7.2037086e-02
  1.1683454e-01
 -3.9902806e-02
 -2.8556292e-03
  2.0880828e-02
  2.0254886e+00
 -3.2241460e-02
  6.5701768e-02
 -1.0013691e-01
  8.6102877e-03
 -5.5765398e-02
 -8.0943473e-02
 -1.4207594e-01
  7.1359985e-03
  1.3754935e-03
  1.0087568e+00
 -2.1679899e-01
  1.8646463e+00
  8.0507986e-02
 -1.2833108e-01
  4.4039699e-01
 -4.5534622e-02
  6.9480613e-02
 -7.8122365e-01
  4.0785823e-02
  1.7386466e-01
 -1.1877103e-02
 -2.3999152e-01
 -2.2202937e-01
  2.9331205e-02
  1.8777260e-01
 -2.4659619e-02
  5.6769509e-02
 -1.9582422e-01
 -1.4016913e-01
 -9.0835020e-02
 -4.7519496e-03
 -1.3304685e-01
  1.5839911e-01
  1.4038448e-02
 -4.4352203e-03
  4.8337812e-03
  3.4862105e-02
 -9.8779552e-02
 -2.1990621e-01
  2.5405044e-02
 -9.8878875e-02
  1.7468813e-03
  5.2551553e-02
  1.7583936e-01
 -1.4771197e-02
  6.8101250e-02
  1.9288783e-01
 -1.0207904e-01
  5.0823070e-02
 -3.4434211e-02
 -5.2146353e-02
  3.1896941e-02
  1.4467868e-01
  5.0313707e-02
 -1.3109747e-02
  6.2017906e-02
  2.0281452e-01
  8.8395178e-02
 -2.5145942e-02
  9.8283984e-02
 -5.1853947e-02
 -8.0717634e-03
  4.0060781e-02
  1.5573962e+00
 -1.4280205e+00
 -5.3537750e+00
  2.1781290e+00
 -6.2691898e+00
  2.2555842e-01
 -2.7652190e+00
 -6.8778434e+00
 -1.3070199e+00
  4.4932444e-02
 -1.4413543e-01
 -3.0418944e-02
  2.3849702e-02
 -1.0842513e-01
 -8.1972487e-02
 -3.4768185e-01
 -3.9536518e-01
  4.1015893e-02
  7.9295981e-01
  1.4500179e+00
  2.4937198e+00
  2.7595134e-03
  8.6548716e-02
 -6.7349857e-01
  1.2553926e+00
 -4.1555542e-02
  8.0048613e-02
 -7.5409110e-03
  4.0909261e-01
 -6.6404082e-03
  1.9581753e-03
 -4.3898016e-02
  4.7869431e-03
  5.2622432e-01
  1.3736423e+00
  1.2037665e+00
  1.3590058e-02
  7.5356758e-01
  2.5535369e-02
 -7.6363936e-02
 -1.1041058e+00
  3.9288345e-01
  8.4257908e+00
 -5.2033687e+00
 -7.0586212e-02
 -7.1347639e-02
  9.1183648e-02
  5.5116232e-02
 -1.6896342e-01
 -1.5765560e-01
  1.5860094e-02
 -1.1369001e-01
 -3.9280644e-01
 -1.2440901e+00
 -1.5638593e+00
  3.6902085e-01
  1.2464751e+00
  1.8824789e-01
 -1.4424424e+00
 -7.2136611e-02
  1.5575650e-01
 -4.3219230e-01
 -6.2773120e-01
 -6.5623991e-02
 -5.3191686e-01
 -8.8456534e-03
  4.3171111e-02
  1.8366544e-01
 -1.1009251e-01
  1.8316602e-02
  7.0371255e-02
 -6.2024524e-03
  3.4965266e-02
 -2.0029214e-01
 -2.9798627e-02
  4.9211606e-02
  2.4988964e+00
  6.3049853e-02
  9.7839251e-02
 -2.8665919e-02
  2.7071846e-01
  1.3349625e-01
 -4.1004181e-02
  4.2921033e-02
  6.5364406e-02
  1.5956344e-02
 -9.6628502e-02
  7.6918446e-02
  1.9805271e-02
 -5.1151820e-02
  1.1505681e-01
 -5.2351076e-02
  6.5381736e-02
  2.9735219e-01
  1.9953510e-01
  2.6117113e-01
  1.0553314e-03
  1.0329801e-01
  3.3668795e-04
  3.7507117e-02
  1.0054021e-01
  1.1679300e-01
 -4.0868592e-01
  1.8605739e-02
 -1.6980815e-01
 -1.4160288e-02
  3.9861319e-03
  6.2496278e-02
 -1.6466171e-01
  9.6422479e-02
  2.3027176e-01
  3.1390071e+00
  6.3765228e-01
 -1.1043128e+00
 -1.0216437e-01
 -1.7035429e-01
  8.7127399e-01
  5.9042871e-02
  2.2328971e-03
 -1.5230359e-01
 -3.8166504e-02
 -2.5041676e-01
 -6.2933631e-02
 -6.2192276e-02
  2.9428762e-03
  9.3133219e-02
  7.5972490e-02
 -1.8642005e-02
 -1.3163333e-01
 -1.5466949e-01
 -6.6625997e-02
 -4.1529831e-02
 -2.9716037e-02
 -1.0120487e-01
  6.6556148e-02
 -6.1555605e-02
 -1.1030383e-01
 -3.8258079e-03
 -3.2059390e-02
  7.1077682e-02
  7.5987983e-03
  8.4773824e-02
  2.3086394e-01
  6.5107353e-02
 -1.7004514e-01
 -1.0278846e-01
 -5.4700710e-03
  3.7387204e-01
  2.9459562e-02
 -1.1142749e-01
  1.0141062e-01
 -4.1011412e-02
  3.6159333e-02
  2.2563498e-02
 -3.0282883e-02
 -8.8865139e-02
 -1.9027842e-02
  1.5362971e-02
  1.6337845e-01
  3.6933843e-02
  2.8701436e-02
 -1.2476775e-01
 -1.3619872e+00
  9.9549717e-01
  8.4675562e-01
 -2.6097596e-01
  6.0689408e-01
  2.0913140e-01
 -9.2412943e-01
  1.6027421e-01
 -6.1544788e-01
  1.6571525e-01
  2.8416870e-02
  5.4909986e-01
 -3.2620147e-01
 -6.9444859e-01
 -4.2613521e-02
  1.0000645e+00
  1.0087272e-01
  2.0731013e-01
 -2.5453571e-02
  2.9130027e-01
  1.2242824e-01
  2.9084315e-03
  4.7629654e-02
 -5.9002775e-01
  1.5399370e+00
  3.9463443e-01
 -6.8312162e-01
  8.9237338e-01
  2.1331502e-02
  8.4708709e-01
  2.2735271e+00
 -7.9946256e-01
  9.7977400e-01
  1.2204912e-02
  3.0956045e-01
  5.8584833e-01
 -1.3608495e+00
  7.3031777e-01
 -6.9025713e-01
 -8.9218944e-01
  6.2928593e-01
  9.8484594e-01
  6.5198943e-02
  1.3047457e-02
 -6.7415126e-02
  2.3865074e-01
  4.5652196e-01
 -8.7282944e-01
 -4.3799132e-01
  4.9370736e-02
  6.7951842e-03
 -7.8027874e-02
  7.6107395e-01
  8.3115615e-02
 -6.4881605e-01
  1.7326156e-02
  2.1662336e-02
 -7.3135042e-01
 -1.0673176e-01
  4.1102213e-01
 -1.3955303e+00
 -5.0563633e-01
  3.6107013e-01
 -1.9527248e-01
 -5.6754176e-02
 -1.0062487e-01
 -5.0460511e-01
  3.2867464e-01
  2.2412120e-01
 -7.4811518e-01
 -9.6938688e-01
 -2.4188779e-01
 -8.6956315e-02
 -7.1968779e-02
  2.2912939e+00
 -8.6366817e-02
 -1.9056384e-01
  4.6810606e-03
 -7.7798021e-01
 -6.5544766e-01
 -1.0746409e+00
 -1.6354978e-01
 -2.1746305e-03
 -9.7395359e-03
 -2.2314139e-01
 -2.8239697e-01
  4.7242776e-01
 -4.9135610e-01
 -2.1655251e-01
  3.4778258e-01
 -2.2874068e-01
 -5.5110633e-02
 -1.3672423e-01
 -7.4184221e-01
 -2.4170314e-01
  2.9597670e-01
 -1.6956211e+00
  7.2827758e-03
 -1.5228349e-01
  2.7412561e-01
  8.0685303e-02
  5.8443770e-03
 -2.4143145e-03
 -7.3423623e-03
  5.4836672e-02
 -1.9418472e-02
  1.9238743e-01
 -1.6225089e-01
 -3.1185903e-02
 -1.2397349e-01
 -2.0367995e-02
  1.8730359e-01
  3.0256892e-03
  1.5177119e-01
 -8.5326001e-02
  3.3635847e-02
  5.1209752e-02
 -1.8341087e-02
  7.6389432e-02
 -2.5421886e-03
 -1.4677196e-02
  9.4191579e-04
 -7.2130233e-02
 -2.3007600e-01
 -3.5620420e-03
 -1.8938044e-02
 -1.2589376e-01
  3.1044987e-01
 -3.2222304e-02
  2.1902309e-01
  2.3821899e-01
  2.5817892e-03
 -7.6174834e-03
 -4.1746117e-02
  2.7521217e-02
  6.4492866e-02
 -3.7853204e-02
  2.0637922e-02
 -4.8758321e-02
  2.7301421e-03
 -1.9816916e-02
  8.2542322e-04
 -2.5628263e-01
  1.2443705e-02
  5.4249227e-02
 -4.6641138e-01
 -1.5963616e-02
 -2.2043973e-02
  5.0583351e-02
  3.8344011e-01
  1.4750119e-01
 -2.3011900e-02
 -1.1630198e-01
  1.5647689e-01
 -1.7601328e-02
 -2.4439248e-01
 -9.4483513e-03
 -6.6913078e-03
  9.5555494e-03
 -1.4601813e-01
 -1.2672456e-02
 -2.8244331e-02
 -1.9035603e+00
  1.9442128e-01
  1.8464664e+00
 -1.8816091e+00
  2.4255722e+00
 -6.0067557e-02
  1.5884223e+00
  1.1616098e+00
 -8.6616147e-01
  2.5521410e-01
  2.4394121e-02
  1.2322472e+00
  1.3727076e+00
 -8.3959997e-01
  6.1502863e-02
  4.7770622e-01
 -2.4651663e+00
  1.3753390e+00
 -1.8378311e-01
 -1.1855143e+00
 -4.5459247e-01
  1.7995836e-01
  3.0109808e+00
  2.0387120e+00
  2.9331810e+00
 -4.3053024e-02
 -5.5848461e-01
  4.9608085e-01
 -4.1349534e-02
  3.0086770e+00
  3.4649113e-01
 -1.6994151e+00
  1.5557865e+00
 -1.4036335e+00
  8.7689352e-01
  4.3452165e-01
  1.5573040e+00
 -3.2380767e-02
  4.3236691e-01
  1.9140262e-02
  3.0155101e+00
 -4.1162715e+00
 -4.7813420e+00
  1.5397909e+00
  5.4921609e-01
 -4.4495296e-02
  4.6320383e-02
 -1.9211604e-01
 -3.0882284e-02
 -1.9552866e-02
 -5.8373094e-02
 -1.9646083e+00
 -1.5895724e-01
  5.3626195e-02
  5.2942479e-01
 -5.5190239e-02
  2.0220542e-01
 -3.2354450e-01
  1.3077482e+00
  8.2396977e-02
  5.3688067e-01
 -6.6736513e-01
 -1.8964511e-01
 -6.1497428e-02
 -7.7605337e-02
  4.0118907e-02
 -4.1784183e-04
 -3.3603871e-01
  1.2069748e-01
 -2.7539587e-02
 -4.5167167e-02
  7.6905213e-02
  7.6383218e-02
  8.5462429e-02
  5.9455968e-02
 -4.1772794e-02
  2.5987488e-01
 -7.4965604e-02
  3.7572764e-02
 -8.7394893e-02
 -1.2667446e+00
 -3.7110813e-02
 -1.5479095e-01
 -2.6799619e-01
 -4.4414423e-02
 -3.9917924e-02
  4.5490213e-02
 -7.8714490e-02
  1.6158070e-01
  1.4648175e-01
 -6.9374137e-02
  1.0489359e-01
 -6.6469900e-02
 -3.8725555e-02
 -7.4622937e-02
  1.3687124e-03
 -2.4364738e-01
 -2.4983034e-02
  5.3393751e-01
 -1.4618243e-01
  9.8691732e-03
  4.4660535e-02
  2.8618000e-02
  2.3246417e-03
  9.1870558e-03
 -1.4926371e-02
 -3.2432131e-02
 -1.6165823e-01
 -4.7076273e+00
  3.2939522e+00
  3.2161782e+00
  2.5849483e+00
 -2.9426315e+00
  1.6463089e+00
 -2.5113459e+00
  4.2166212e-01
  1.4976840e-01
  4.5166235e+00
  6.5886331e-01
 -1.7893486e-01
 -1.3273865e-01
  3.5284061e-02
  7.6900274e-01
  6.4918095e-01
 -4.7358862e-01
 -1.5064999e+00
 -1.9559283e-02
 -2.5492370e-02
  3.2308559e+00
 -1.1032689e+00
  1.2170619e+00
 -1.9715807e-01
 -6.4602569e-02
 -5.9058613e-01
 -3.9706400e-01
  1.5404710e-01
 -7.4525446e-01
 -1.5570973e+00
 -2.2209989e-02
  4.8594967e-02
  5.9249365e-01
  9.1494285e-02
 -4.0078562e-01
 -5.5680074e-02
 -4.4436431e-01
 -4.2360398e-01
  2.9399294e-01
  2.9909762e-02
 -3.7903776e+00
  1.0235914e+00
  3.7940447e+00
  1.3008744e-01
 -3.2069482e-02
  4.0721068e-01
 -3.2601975e-02
 -4.4005513e-03
 -2.6220031e-02
 -2.1359244e-01
  9.6374243e-02
  1.1760383e-02
 -8.2898572e-02
  7.5925611e-02
  9.4951041e-02
 -1.8946518e-01
 -3.6193541e-01
 -6.0604647e-02
 -5.0026503e+00
 -8.9850292e-02
  2.5453229e-02
  1.7596252e-01
  8.7842017e-02
 -5.0741747e-02
  8.6395793e-02
  4.3168053e-02
  4.2155501e-02
  2.6726696e-01
 -1.8329045e-01
  1.3936195e-02
 -6.1145585e-02
 -2.8339792e-02
  2.4761353e-02
  1.4708034e-02
  1.1594035e-02
 -1.5842678e-02
 -1.9528916e-03
  6.1915978e-03
 -3.6043081e-01
 -7.6588474e-02
 -7.7356412e-03
 -2.9288980e-01
  5.9223954e-02
  2.5881663e-02
  4.6089862e-02
 -2.5107162e-02
 -6.8718761e-02
 -1.7962923e-03
 -2.9350169e-02
 -1.3520119e-01
  9.9912956e-02
  6.5005518e-02
  1.3080299e-01
  9.0280958e-02
  2.4321601e-01
 -7.9271115e-02
  9.5025539e-02
  5.4708634e-02
  1.4959478e-01
 -3.5667598e-02
 -7.5010695e-02
 -6.4376396e-01
 -6.8563707e-03
  1.5449323e-01
 -2.5342019e-02
  1.8466997e-01
 -1.1470506e-01
 -1.2369729e-01
 -5.8590114e-02
 -4.2937794e-01
  5.0904268e-01
  4.4804525e-01
  2.6672184e+00
  1.9778296e-01
 -3.0513689e-01
 -8.1233559e-03
 -1.7154343e-01
  5.5319905e-02
  6.8004861e-02
  1.6838436e-01
 -5.6032334e-02
  1.3938398e+00
 -1.0235281e-02
  1.5268183e-01
  1.4815998e-01
  5.3065326e-02
 -2.8776508e-02
  1.0451780e-02
  9.7175345e-02
  1.7972647e-01
 -1.1554287e-02
  2.3877075e-01
 -3.1836342e-02
  4.6837930e-02
  3.2452187e-01
  8.8643737e-02
  2.7851544e-02
  1.4346093e-02
 -3.4895647e-02
 -2.0845732e-02
  1.1180671e-01
  3.9392421e-01
 -1.2801082e-01
 -1.6748635e-02
 -1.2120327e-01
 -1.9160168e-02
  1.2683423e-01
 -1.0128309e-01
 -2.3857720e-01
 -4.0099941e-02
  5.7181861e-02
 -9.7652143e-01
 -1.4880110e-01
  3.4300750e-01
 -4.9945313e-02
 -6.0794193e-02
  5.8978628e-02
  2.4744466e-02
 -6.4578988e-02
  1.0582579e-02
 -1.0262295e-01
  3.7278074e-01
 -3.0249760e-02
  1.1637695e-01
  1.8370689e+00
  3.7409559e-01
  1.4368640e-01
  4.7389439e-01
 -1.2349001e-02
  2.5308162e-01
  9.2451289e-02
 -6.1558872e-01
 -5.4527551e-04
 -1.8592115e-01
 -3.7908785e-02
  8.9781210e-02
 -6.2610991e-02
 -6.4036466e-02
 -8.4461153e-02
 -5.9790150e-03
 -2.9510712e-02
  8.4764756e-02
  9.8252008e-03
 -3.2525152e-02
 -1.7861739e-01
 -1.4944887e-01
 -1.0969235e+00
 -2.8899031e-02
  6.6522829e-02
  4.0914771e-01
 -1.0744998e-01
 -9.9691987e-02
 -5.5405073e-02
  4.9064735e-01
 -1.2730028e-02
  9.1975272e-02
  4.1283703e-01
  2.4734169e-02
  1.5896589e-01
  3.2692578e-02
  1.0039838e-01
 -9.7791478e-03
 -1.0810775e-01
  1.9381522e-01
 -6.6143319e-02
  2.2601511e-02
  1.2437326e-01
 -2.6530383e-02
 -2.5789041e-02
  6.2011994e-02
 -6.9657490e-02
  2.8880091e-02
  4.5261629e-02
  5.0873656e-02
  1.2182638e-01
  6.1661400e-02
  6.6335243e-01
  3.8287470e-01
  1.0199622e-01
 -2.0524075e+00
  2.7325664e+00
 -1.1935288e+00
  9.7213888e-01
  1.5027945e+00
 -1.0314008e+00
  1.6993772e-02
 -3.3574539e-01
 -1.6992752e-01
  4.4704527e-02
  2.6164718e-02
  1.0795144e+00
  5.2294582e-01
 -2.5990697e-02
 -1.0688762e-02
  9.5796185e-03
 -7.2321877e-02
  5.8535017e-02
 -1.2660876e-01
 -7.5137075e-03
 -5.3474061e-02
  7.7230573e-01
  1.2774517e-01
 -3.8765375e-02
 -4.4558354e-02
  5.7596803e-01
 -3.7966955e-02
  1.1245421e-01
  2.0604774e-02
  2.4447158e-01
  1.3157384e-01
  2.2384977e-01
  5.8595365e-01
 -1.8893470e-01
  2.0641526e-02
  3.9076261e-02
 -1.4455000e-01
 -4.6824507e-02
  3.0259600e-01
 -3.3606283e-02
 -3.9303560e-02
  4.3241315e-02
 -1.3748940e-02
  3.3495635e-01
 -1.0946401e-01
 -2.3105055e-01
  2.4793973e+00
  2.1624616e-01
  3.5371262e-01
 -1.3948387e-01
  1.5542013e-02
  3.6200779e-03
 -1.3004479e-02
 -3.6328915e-01
  1.5235315e-01
  2.0772484e-01
 -1.3910459e-01
  4.0492320e+00
  2.2634413e-02
  7.7358246e-02
  4.6427711e-03
 -9.4838545e-02
  4.4710943e-01
 -7.8251343e-03
 -3.2831103e-02
 -1.0765453e-02
  1.4651439e-02
  5.9207879e-02
  7.7924967e-02
 -4.7510676e-03
 -1.3876480e-02
 -6.3444711e-02
 -9.5389135e-02
  1.9443090e-01
 -1.0489369e-01
  1.1413535e-01
  7.8128189e-02
 -1.6939049e+00
  1.1940988e-02
 -3.6961686e-02
 -5.8301203e-02
  6.0997587e-02
 -8.1763402e-02
  3.0044178e-02
  7.5590357e-02
  1.8202966e-01
  2.5855809e-01
 -8.1042536e-02
  1.8947526e+00
  2.7197629e-01
  2.2596713e-02
  2.0046429e-01
 -6.1293632e-02
  1.1591177e-01
 -4.5870207e-02
 -2.2306161e-02
 -4.5536440e-02
 -1.1430728e-01
 -7.7086920e-03
 -4.9049519e-02
  3.1065464e-01
  1.2225566e-02
  3.8352467e-02
 -1.6100825e-01
  1.8713461e-02
  9.8243766e-02
 -6.4554350e-03
  7.0345528e-02
 -1.1071153e-01
  6.0570054e-02
 -1.9498408e+00
 -7.6088747e-03
 -2.0386115e-01
 -4.8688065e-02
  5.3841084e-02
 -1.7580688e-02
  1.5626246e-02
  6.4547509e-02
 -2.6217137e-02
 -3.9044826e+00
 -6.6257469e-02
  5.7093516e-02
  1.7309752e-01
 -4.3836072e-02
 -4.7257565e-02
  1.7074662e-01
  5.1570401e-02
 -1.3857636e-01
 -5.4300316e-02
  3.2163110e-01
  1.1898973e-02
  1.6827077e-01
 -6.5355010e-02
  6.1441967e-03
  2.1132344e-02
  8.5881598e-02
 -8.5221492e-02
  4.2813778e-02
  1.6415264e-01
  1.0831875e-03
 -1.0905410e-01
 -1.9781664e-03
 -1.4516439e-01
 -1.4113568e-01
 -5.3239565e-02
  3.6722289e-03
 -7.2649531e-02
  6.4431287e-02
  2.3929801e-02
  3.4340985e-02
  1.5285179e-02
 -1.4667472e-01
  1.2140327e-02
  1.3258656e-02
  4.7334611e-02
  2.9700564e-02
 -1.5194650e-01
 -4.2165674e-02
  7.7314660e-02
 -2.1294148e+00
  1.4219905e+00
 -4.5009810e-01
  5.0481379e-01
 -1.8982741e-01
  2.4827899e-01
 -2.7814608e+00
  1.2514003e-01
 -3.9629397e-01
 -3.8439947e-01
  7.5869185e-01
  1.9008754e-01
  5.7384104e-01
  3.7050635e-02
  1.1987653e+00
 -3.2940261e-02
 -1.0289072e+00
  2.8445956e-01
 -8.5159898e-01
  5.0138944e-01
  1.6885815e+00
  1.2027320e-02
  1.2840375e-01
  3.9296389e-01
 -1.6311862e+00
  2.3600585e+00
 -4.1622564e-02
  8.8010445e-02
 -3.5344213e-02
  4.0707007e-01
 -1.5813412e-01
  5.2655584e-01
  4.5328453e-01
 -4.8185626e-01
  8.5763540e-03
  1.1740083e-01
 -4.3749302e-03
  2.3332998e-01
 -4.6330273e-02
  2.6616484e-03
 -1.3302562e+00
 -8.1836420e-01
 -7.9761219e-01
  4.1339781e-02
  2.7099818e-01
 -9.3761429e-02
  1.9261093e-01
 -6.1466642e-02
 -8.9514375e-02
  1.5532371e-02
 -2.3276210e-02
 -4.8097681e-02
 -2.2247715e-02
 -3.1236492e-02
 -1.3081256e-01
 -2.2212839e-02
 -2.2954910e-01
  7.8798123e-03
  8.6121961e-02
 -2.6334411e-01
 -1.5272003e-01
  2.2822009e-01
 -5.5753026e-02
 -1.1292747e-01
  3.9590891e-02
  2.0075683e-02
 -7.2131999e-02
  1.1173433e+00
 -1.1874305e-01
 -1.6518694e-01
 -2.3888805e+00
  1.1134667e+00
  3.1485873e-01
  1.2448876e-01
  8.6969429e-01
  1.1950082e-02
 -2.2804271e-01
 -4.2448241e-02
 -8.0652314e-01
 -2.8893781e-01
  7.5134106e-02
 -1.2166259e-02
 -1.9328186e-01
 -4.2795531e-02
 -1.6000625e-01
  2.0007532e+00
 -1.4493361e-01
  8.2587831e-02
 -1.0289910e+00
 -2.2352004e-01
  1.9399712e-02
 -2.3560120e-01
 -7.6060146e-02
 -3.7003657e-01
  1.1715021e-01
  3.1473082e-01
 -1.0943485e+00
 -5.8745909e-01
  6.4166206e-01
 -1.1784826e-02
 -1.3420725e-01
  1.6292765e+00
  2.3839691e-01
  3.0559543e-01
 -7.8247875e-02
  5.1963186e-01
 -7.4290028e+00
 -5.2928057e-02
 -5.2883662e-02
  1.5822279e-01
  7.4432306e-03
 -1.3592365e-01
  4.9138641e+00
  8.5075580e-02
  2.1715441e+00
 -2.1632120e-01
 -1.3219628e-02
 -1.7063275e-01
  1.5897313e-03
 -1.2074536e+00
  6.3385971e-02
 -4.0746704e-02
 -6.5947704e-02
 -8.8246495e-02
  7.2044954e-02
  4.7686901e-02
 -2.5916735e-02
 -1.7249204e-02
 -1.1756124e-02
 -1.4579064e-01
 -6.6794783e-02
  6.5373085e-02
  3.3684451e-02
 -8.9010254e-02
 -2.0722800e-03
 -3.8037736e-03
 -4.6635777e-02
  1.6001672e-02
  2.9183196e-02
 -7.9409949e-02
 -9.3791457e-03
  6.7007542e-02
 -2.3105484e-02
  1.8349214e-01
  6.9594651e-02
  2.3028642e-02
  7.4625984e-02
  7.3777117e-02
  1.6712272e-01
 -4.9701922e-02
 -1.0104885e-01
 -1.6533972e-03
  9.6000031e-02
  5.0440967e-02
 -1.1995905e-01
 -2.7948244e-02
  1.7041008e-01
 -4.5740527e-01
 -8.4304936e-02
 -1.6868280e-01
 -2.9365778e-02
  1.3714151e-01
 -3.1508881e-01
 -7.5885519e-02
 -8.1759043e-02
  2.4822566e-01
  2.4085601e-01
 -5.8740652e-01
 -2.6856069e-02
  3.0085972e-01
  4.3587485e-01
  1.6848993e-01
 -1.3187313e+00
  8.6366820e-01
 -8.6052299e-02
  7.8343540e-02
  3.6191398e-01
  3.1782272e-01
  6.3615721e-01
  1.1564966e-02
  4.7390021e-02
 -5.2164727e-01
 -1.9875088e-01
 -3.0746974e-02
  6.9680208e-01
 -1.0596637e-01
  1.4901903e+00
  1.0208125e-01
 -1.1257462e-02
  2.8107035e-01
  2.6429042e-02
  1.5160969e+00
 -7.8339782e-03
  6.1216694e-01
 -9.9766451e-01
  3.9760739e-01
  1.4387819e-01
  2.9004456e-02
 -2.7738869e-01
 -2.9170299e-01
  4.3744513e-01
 -1.0777039e-01
  2.5002891e-01
 -1.0692604e+00
  5.7518649e-01
 -4.3945495e-02
 -1.9420022e-01
  2.6892295e-02
 -9.9466050e-01
 -1.2393401e-01
 -2.6311007e-01
  6.7166492e-02
 -2.5016785e-02
  6.6651381e-04
  1.5832675e-03
 -4.2234529e-02
 -3.1904139e-02
  3.3395507e+00
 -1.9894562e+00
  2.8419850e+00
 -1.9832458e-01
 -1.1449888e+00
  1.0488139e-02
  8.5663688e-01
 -1.4725223e+00
 -2.5980118e-01
 -3.3692500e-01
  1.8717834e-01
 -2.4549918e-01
 -9.0694122e-02
 -3.0264710e-03
 -4.2517990e-01
 -2.1094932e-01
 -2.8985632e-03
  3.0986941e-01
 -2.5213853e-01
  3.6012962e-01
 -2.7319881e-01
 -1.7851539e-01
  1.0042779e-02
  4.8551630e-02
 -7.1872636e-03
 -8.0022588e-03
 -6.0072718e-03
 -2.0586047e+00
 -1.5753405e-03
 -8.1331275e-02
  1.4313412e-01
 -1.1344719e-02
 -2.8525004e+00
  1.0158775e-01
  3.0041324e-02
  1.0983191e-01
 -4.9375510e-03
  3.4070262e-01
 -1.2855096e-01
 -1.3438176e-01
  3.1054769e-02
 -1.0738799e-02
  7.1597612e-03
  1.6552564e-02
 -4.3367350e-04
 -3.4397766e-02
  9.1548204e-02
  4.1380033e-02
 -4.2929031e-02
 -2.1563010e-01
  1.4342487e-01
  1.8520905e-02
  1.3001459e-03
  1.8008759e+00
  7.6833358e+00
 -3.7124562e+00
  1.6718071e+00
 -2.7555561e-01
 -2.8517511e+00
 -7.2216086e+00
 -2.5241492e+00
 -5.0130172e+00
 -2.4202767e-01
  3.4458581e-02
  7.9027131e-02
 -2.0682554e-01
  7.1405441e-02
  1.5285547e-01
 -1.3904239e+00
 -9.4722115e-02
  1.2172993e-01
 -8.7702197e-01
  8.4939329e-03
 -1.2887237e+00
  2.6487608e-02
 -6.9436234e-01
  5.0898567e-03
 -1.5772963e+00
  6.1500061e-02
  5.8144227e-02
  4.6529856e-02
 -1.2334612e-01
 -1.0812349e-01
 -1.3545884e-01
 -2.6005900e-02
  5.2961305e-02
 -2.5611958e-02
  1.3287184e-02
  1.6812156e-01
 -4.9428365e-01
 -4.4798508e-02
 -3.4950560e-01
 -2.4878301e-02
  3.6243367e-01
 -7.2613144e-01
 -7.7246720e-01
  3.8415194e-04
  1.6034216e+00
  1.3576749e-02
  3.3891864e-02
  8.9014210e-02
  9.8157257e-02
 -7.8689195e-02
  6.6163629e-02
 -1.1856224e-02
  1.6321887e-01
  9.6001327e-03
  7.8331091e-02
  9.7787157e-02
 -5.6336153e-01
 -3.5479255e-02
 -1.6063024e-01
 -4.1573805e-01
 -2.5212681e+00
  1.3843411e-01
 -7.9744942e-02
  7.7760503e-02
 -7.5415592e-03
  9.1194429e-02
  6.4508341e-02
 -9.7558144e-03
 -1.0981942e-01
  3.1717103e-02
 -4.6374831e-02
  3.7964541e-02
  5.8322674e-01
 -6.0131755e-02
 -1.6946277e-02
 -1.3784657e-01
  9.6643865e-02
 -6.7255527e-01
  6.5329053e-02
  9.8701060e-02
 -4.8914474e-02
  1.0933491e-01
  9.3093729e-03
  3.0377213e-02
 -8.6531267e-03
 -9.3717441e-02
 -5.8070529e-02
  1.1990632e-01
 -1.4457954e-01
 -1.3935195e-02
  2.1536270e-02
 -7.7402562e-02
 -2.9471350e-01
  1.2377061e+01
  9.3788072e-02
 -4.1971587e-02
  6.0375642e-02
  2.5878353e-03
 -3.3032078e-02
 -2.0237159e-02
  2.6952038e-03
  6.4176291e-02
  6.1589114e-02
 -5.7327755e-02
 -7.5836033e-01
  1.2844718e-02
  1.4488441e-01
 -1.2748497e-02
 -3.9438048e-01
 -6.2209338e-01
  5.2479756e-01
  2.5925221e+00
  1.6095501e+00
  2.9039130e-01
  1.3791884e+00
  3.1463306e+00
 -1.8885654e-01
 -3.5400889e-03
 -1.3886435e-03
 -3.8702272e-02
  4.3100152e-02
  3.8245487e-01
 -1.0440961e-01
 -1.3546851e-01
 -3.3191312e-02
 -1.0632734e-01
  2.4972375e-02
  6.7538703e-03
  1.1902336e-01
 -1.4140770e-01
 -4.6155009e-02
  2.7903980e-02
  1.7218919e-02
 -1.8619902e-02
  2.8135533e-02
 -2.6740126e-02
  1.7776042e-02
 -1.9104853e-01
  2.9639296e-02
  6.6758699e+00
 -3.9198574e-02
  1.9002760e-02
  8.4285453e-02
 -4.1093152e-02
  1.4865869e-02
  3.9482760e+00
 -8.2193188e-02
  3.5029300e-02
 -2.6466933e-01
 -2.0464100e-01
  5.2106142e-02
 -5.2303302e-01
 -6.1593950e-02
  3.3887157e+00
 -1.9223252e-01
 -2.7615417e-02
 -4.7232687e-02
  7.8995533e-02
  8.1603438e-02
 -3.3245105e-02
  2.6750609e-01
 -2.6724763e-02
  6.1152458e-01
 -3.4550661e-01
 -8.5092300e-01
 -3.8300264e-01
 -9.7423293e-02
  8.5039414e-02
 -3.1429517e-01
  1.9950469e-01
  6.0181761e-01
 -4.9629590e-01
 -8.5346259e-02
 -1.0469074e+00
  2.9436957e-02
  3.7502277e-01
 -2.6308686e-01
 -4.9425803e-02
 -4.5582941e-01
 -1.4771770e-01
  2.2864164e-01
 -1.7876776e-01
 -1.4181535e-01
 -5.8671182e-01
  5.0989342e-01
 -2.6790841e+00
 -6.2761921e-01
 -5.0419509e-01
 -6.7012572e-01
 -4.5453152e-01
  6.2619555e-01
 -2.0772290e+00
  1.2435899e-03
  8.3738083e-01
  4.1664419e-01
 -6.4565820e-01
 -4.8315540e-01
  1.0267363e-02
  1.1128153e-02
  2.6249051e-01
  1.1928286e-02
  4.3707650e-02
  6.6800937e-02
  6.5538681e-01
 -2.7144704e+00
  1.7995572e-01
 -8.4064193e-02
  8.0866843e-02
  5.8452547e-01
  1.5022805e-01
  6.5242670e-02
  3.0703237e-02
  4.0639469e-01
  1.4180940e+00
 -5.2622538e-03
  3.1667140e-01
  3.9204806e-01
 -2.7242896e-01
 -8.9073706e-01
  2.8970909e+00
 -1.4992379e+00
 -3.7968966e-01
 -1.3382856e+00
 -2.8075096e-01
  9.2112952e-01
  1.1587181e-01
 -8.4524050e-02
  9.6655942e-02
 -1.6461927e-01
 -1.9908533e-01
 -4.0653190e-01
  8.5889531e-04
  7.2988868e-02
  2.0873508e-01
 -5.3067757e-03
 -9.4234234e-01
 -1.0785040e-01
 -4.0942484e-01
 -6.3440554e-02
  1.0877615e-03
  4.9262273e-01
 -2.7166134e-02
  3.0842351e-02
  1.6438614e-01
  9.4061479e-02
 -2.6681824e-03
 -1.5087499e-01
  3.7524766e-01
 -6.2815748e-02
 -1.5192040e-02
 -1.3545793e-01
 -1.3724543e+00
 -1.9634539e-02
 -6.8094783e-02
  1.3032237e+00
  2.0846698e+00
 -2.0138134e-04
 -5.7281399e-01
 -4.6795720e-01
 -2.1013051e-01
 -1.7553213e-01
 -1.9030519e-02
  1.0500970e-01
 -1.0412457e-01
 -5.8183884e-03
 -1.2578796e+00
 -2.5258891e-02
 -1.9449367e-03
 -9.5447481e-02
  5.9807813e-04
 -6.7319371e-02
 -4.5570989e+00
  1.3692909e-02
  8.3683766e-02
  1.5460223e-01
 -3.0041957e-01
  1.8926986e-01
 -2.6703399e-02
 -2.6158771e-02
 -2.0526515e-01
  9.5618315e-02
  3.5409443e-02
 -1.2850215e-01
  1.1024083e-01
  1.1347795e-01
 -8.6949065e-02
  6.1763683e-05
 -1.5574774e-01
 -1.5298930e-01
 -1.3619023e-02
  7.7404216e-02
 -1.0701624e-01
 -1.5365587e-02
 -1.6211462e-01
  2.8183948e-02
 -1.3787104e-02
  4.3853890e-02
 -1.5529591e-01
 -3.5265889e-03
 -7.3264576e-02
 -2.3882121e-02
  3.7787890e-01
  8.0460878e-03
  7.7610901e-03
 -6.3250358e-03
 -8.0359735e-02
  3.6744995e+00
  8.3647327e+00
 -1.7178159e-02
 -1.8247846e-01
 -1.3243127e-02
  7.9188633e-01
 -3.5312869e-02
 -3.2281071e-02
  1.8030884e-02
 -5.9730269e-02
  3.7645004e-03
  6.9639213e-02
 -4.8568103e-02
  7.2396815e-02
 -2.2645450e-01
 -7.7129714e-02
  1.3942210e-01
 -9.1182068e-02
 -2.6208235e-02
 -7.5060958e-03
  9.1183729e-02
  1.6071801e-01
 -4.3008596e-02
 -3.6629787e-01
 -1.7242250e+00
  3.6980040e-02
  2.6917377e-01
 -9.5514134e-02
 -2.3232859e-02
 -1.2999699e-01
 -6.0935125e-02
 -1.3658915e-02
 -7.9039708e-03
 -5.9945084e-02
  3.6726009e-02
 -3.8484401e-01
  2.0526542e-01
  7.5173721e-02
 -2.2796139e-02
 -3.5370663e-03
  2.7922623e+00
 -1.0816576e-01
  6.2815718e-02
 -3.2416586e-02
  2.7122267e-03
 -1.2937479e-01
 -3.1466281e-01
 -1.2407227e-01
 -7.6853104e-02
  2.2627558e-01
  2.5224262e-01
  3.1364452e-02
  1.2608950e+00
 -6.9674671e-01
  1.9480373e-01
  1.8944511e-01
  2.2982506e-02
 -1.5638019e-01
 -3.0211435e-04
 -1.1887121e-02
  2.7273722e-02
  7.2744541e-02
  2.4725890e-01
  8.2219839e-03
  3.3684339e-02
  1.1114241e-02
  6.9304101e-02
  1.2047322e-01
  3.2677162e-02
 -1.5221804e-01
 -1.1888443e-02
  1.6000868e-01
 -1.4435083e-01
  1.9260252e-01
  3.3247285e-02
  5.7582716e-03
  1.4921468e-01
  2.4829014e-01
  4.3489045e-01
 -2.8796660e-02
  2.6566668e+00
 -9.4137460e-02
  3.9932106e-02
 -3.0723962e-01
  8.9895472e-02
 -8.0715209e-02
  1.6741700e-01
  2.0137489e-01
  3.9547145e-02
  9.5980041e-02
 -4.2547669e-02
 -8.8235606e-03
 -9.9605890e-03
  3.7115149e-02
 -3.6474280e-03
 -2.3963779e-02
 -1.6252908e-01
  3.7282836e-02
 -7.5501025e-02
  3.8692828e-02
  5.8345415e-02
  1.2848829e-02
  3.0401740e-02
 -6.3981324e-02
 -5.5010539e-01
  1.5193970e-02
 -3.8271204e-02
  8.3481036e-02
  1.4366522e-01
  1.2409400e-02
  7.1879491e-02
  5.4091033e-02
  3.1231937e-01
 -1.3166531e-03
 -1.2733477e-01
 -9.4874417e-03
 -1.5069583e-01
 -4.2225756e-03
  1.2811902e-02
 -1.2577319e-01
 -3.2399778e+00
  1.5612569e-01
  3.0907176e-02
 -6.7178279e-02
  1.0679929e-02
  1.0717552e-01
 -1.4274080e+00
 -1.6868494e-02
 -1.0072815e-01
  6.6708826e-02
 -1.8883073e-01
  7.6517051e-01
 -4.6733618e-01
 -2.0155306e-03
 -6.1199307e-02
  4.2785700e-02
  6.1283391e-02
  4.8222888e-02
 -2.2610542e-01
 -2.1188591e-01
  4.5507692e-02
 -5.4902799e-02
 -1.2262597e+00
  4.4772159e-02
 -2.7426523e-01
 -3.8092226e-02
  6.3821800e-02
  4.0664807e-02
 -1.0135685e-01
  4.2868473e-02
 -4.6084687e-02
 -3.5710752e-02
  5.1115680e-02
 -1.9885994e-02
 -9.7630322e-02
 -7.1432866e-02
  2.3540473e-01
 -3.5438761e-02
 -8.7849118e-02
 -7.0368245e-02
  1.9328661e-01
 -2.0163529e+00
  3.8329605e-02
  4.1490827e-02
  1.9148011e-02
 -1.9833153e-02
 -2.9892304e+00
  4.0277630e-02
  3.9275698e-02
 -2.7700927e-02
  9.9526666e-02
 -3.2710582e-02
 -4.0961862e-02
 -9.3210436e-02
  2.5480989e-02
 -3.9432965e-02
  4.3708116e-02
 -5.8348466e-02
 -2.1951631e-01
 -1.4793497e-01
 -7.0049621e-02
  4.5424014e-01
  1.4939561e+00
  7.7674782e-01
  1.1749583e+00
  3.4961939e-01
  6.8352669e-01
 -4.7032845e-01
 -1.2054347e+00
 -5.9236273e-02
 -7.4085593e-02
 -4.5719851e-02
  1.9994628e-02
 -1.4163836e-02
 -1.3367644e-01
  1.4170414e-01
 -1.3746610e-01
  1.0270420e-02
 -1.7512171e-02
  5.6135233e-02
 -5.4539811e-02
 -6.3027062e-02
  1.1630221e-01
 -2.6400448e-03
 -2.0317182e-02
 -3.8160097e-02
 -2.8394815e-01
  5.0158739e-02
  2.4419270e-02
 -1.3757038e-01
  1.5266544e-01
 -9.6807554e-03
 -1.1604916e-01
 -1.4463632e-01
 -1.7694052e-02
  5.0320428e-02
  3.2586012e-02
 -2.0109716e-01
 -3.1784285e-02
  1.1507486e-02
 -1.9988492e-01
 -7.2997673e-03
 -1.1858942e-01
 -1.2513828e-02
 -1.1117543e-01
 -6.3008398e-02
 -8.5349726e-03
  6.4905412e-02
 -3.8989641e-02
 -1.8693218e-02
 -1.2429030e-01
  6.8804465e-02
  3.1991506e+00
 -1.5078931e-03
  1.4745319e-02
 -3.7623670e-02
  3.4572884e-02
  6.2974863e-02
  1.3262794e+00
  5.3304782e+00
 -6.8937138e-02
  1.5833355e+00
  6.4290538e-03
 -6.9132887e-02
  1.2080066e-02
  4.2855639e-02
  7.2208107e-02
 -5.0771754e-02
 -1.0589088e-01
  1.0674335e-01
 -1.3531416e-02
  7.7657178e-02
 -1.4073020e-01
 -6.8572901e-02
  2.1418435e-02
 -5.1184017e-02
  7.3460855e-02
 -7.0745510e-04
  1.5439802e-01
  1.8738545e-02
  5.1626015e-02
 -8.1675112e-02
 -1.1675367e-03
  2.7639348e-02
 -1.1800244e-01
  4.0986940e-02
 -2.8782773e-01
  3.4147613e-02
  1.3034762e-01
  5.0039787e-02
  4.2068310e-02
 -3.4104683e-02
  1.4026720e-02
  3.1315871e-02
  1.0014001e-01
 -7.0954993e-02
 -2.6745921e-01
  5.3290911e-02
 -3.1304304e-02
 -4.8418209e-02
 -1.8388233e-01
 -1.4360056e-02
  1.6754299e-02
  1.8478468e-03
  1.6504152e-02
  4.3209926e-03
  8.3995335e-02
  1.1296424e+00
  5.7262576e-01
 -1.2743077e-01
  1.3555898e-01
  2.9964241e-01
 -3.6277306e-01
  1.1704825e+00
 -1.1379182e-02
  9.8680528e-03
 -6.0918278e-01
 -2.3407627e-02
  6.8565138e-02
 -3.3726361e-02
 -4.3368563e-02
  7.3728792e-02
 -4.6641603e-02
  8.2673036e-02
 -1.6158912e-02
  6.1965529e-02
  1.4677951e-02
 -2.3109002e-02
 -6.2529936e-02
 -1.7344554e-01
  4.2445406e-02
 -7.1553633e-02
 -7.2285101e-02
  3.2260764e-02
  5.3539529e+00
 -1.8947855e-01
 -2.3168968e-01
 -1.7898949e+00
  1.3543946e-01
  4.4745658e-02
 -1.2519857e-01
  1.3689323e-02
 -3.6885079e-02
  5.3159378e-02
 -6.6427052e-02
 -1.3269857e-01
  1.5022998e-02
 -2.0339047e-03
  2.8675122e-03
 -1.6902201e-02
 -1.2022338e-01
 -6.8877108e-02
 -1.5469308e+00
 -5.1642243e-02
  2.0644100e-02
 -2.8797560e+00
  3.9857041e-02
 -7.4819839e-03
  9.4454214e-02
 -1.8290773e-02
 -7.6504033e-03
  7.4272186e-01
  1.5239484e-03
  1.1633864e-01
 -2.7460475e-02
  1.8644919e-01
  1.4381872e-01
 -1.7599294e-01
 -1.0844211e+01
  2.7007633e-01
 -5.0381338e-03
 -3.1271359e-04
  5.2351680e-02
  9.1310358e-03
 -1.1991990e-01
  1.1285435e-01
  3.0639071e-02
 -8.1452698e-02
  2.7109876e-02
  3.8726039e-02
  7.9561323e-02
 -3.4977999e-02
 -1.4173487e-02
  2.5403662e-02
 -1.8438200e-02
 -6.6382522e-03
 -2.8532380e-02
  1.0040583e-01
 -1.1235240e-01
 -7.5400785e-02
 -7.3207938e-03
 -1.3283439e-01
 -1.0829301e-01
 -1.5788481e-02
 -3.3413118e-03
 -1.5501331e-02
  2.6847951e-02
  3.6687847e-02
 -5.5371765e-03
  2.8073726e-02
 -5.4806221e-01
  7.2279520e-02
 -2.5261763e-02
  1.3493179e-01
  2.5508684e-01
  5.0535012e-02
  1.6434817e-02
 -3.2507863e-02
 -8.4062003e-02
 -9.9121861e-02
  1.2807408e-01
  1.1062091e-03
 -8.5670583e-02
 -7.7120252e-02
 -1.0025845e-01
 -4.8510958e-02
 -5.5676808e+00
 -1.7925720e-01
  1.8181229e-01
 -1.5864855e+00
  8.9301264e-01
  5.3662080e-01
 -1.1703616e+00
  3.6915553e+00
  1.4374270e+00
  2.1596333e-01
 -1.5354680e-02
 -6.3497819e-02
  8.0890050e-03
  1.4639672e-02
 -1.6959131e-01
  8.9707232e-01
  1.0090100e-01
  1.6708161e-01
 -1.4742513e-02
 -6.6417165e-02
  5.5737436e-01
  2.7607046e-02
  3.9492644e-02
  3.6563993e-02
  1.2669821e-01
  2.2193968e-02
  7.3461723e-01
  1.4372697e+00
  1.7837204e-01
  8.0297306e-02
 -5.0133499e-03
 -2.3079860e+00
 -2.2183744e-02
  1.5533188e-01
  4.8916835e-01
  9.8713952e-01
 -2.3247492e+00
 -2.9777608e+00
  1.2487170e-01
  1.6079133e-02
 -8.2015830e-01
  5.6704950e-02
  8.0802840e-01
  8.1712991e-01
 -1.6682268e+00
  3.7271857e-02
 -1.1921521e-01
 -7.8783780e-02
 -9.7365595e-02
  2.7503974e-03
  7.6110169e-02
 -9.2075683e-02
  1.1436425e-03
 -1.0205023e-02
  5.4888076e-01
  7.5935030e-01
 -6.9630936e-02
  1.4594637e-02
  3.0800626e-01
 -2.2204423e-02
 -1.2566923e-02
 -1.0698416e+00
 -1.8234763e-01
  5.8693099e+00
 -4.3888900e-02
 -2.9655570e-01
 -9.4813073e-01
  2.1917601e-03
 -1.6797323e+00
 -1.6588174e-02
  1.6659130e-03
 -7.0100045e-03
  6.2613748e-02
  8.7259591e-02
  7.7782109e-02
 -7.8760363e-02
  7.5765238e-03
  3.1259334e-01
  4.1653108e-02
  3.9731330e-01
  1.3226631e-01
 -4.0178120e-02
  1.7842402e-01
 -4.3034263e-02
 -3.0902008e-02
  5.7467043e-02
 -3.9322503e-02
  5.4587666e-02
 -1.6677242e-02
 -2.6240833e-02
  4.8910215e-02
  9.1731385e-04
 -1.4902208e-02
  8.8393174e-02
 -1.7628430e-01
  1.6684299e-02
  2.6245125e-02
 -1.4130585e-01
 -5.1291065e+00
 -3.2497449e-03
 -3.7204951e-01
 -1.2586573e-02
 -2.0324361e-02
 -2.9906794e-02
 -7.1569070e-02
 -6.5480135e-03
 -4.4884134e-02
  9.2681415e-02
 -1.4644161e-01
  1.8883701e-01
 -4.8891354e-01
  7.6493479e-02
  4.9786222e-01
  3.5777277e-01
  1.5692978e-01
 -1.3817471e-01
  4.8125944e+00
  1.2980774e-05
  4.1171730e-02
 -2.1853121e-01
 -6.1886221e-02
 -1.0136380e-01
  1.0998169e-01
  5.5321036e-03
 -3.0877562e-03
 -2.7388278e-01
  1.5479395e-02
  6.1261050e-02
 -2.1207853e-01
 -1.0635149e-02
 -6.9148101e-02
  1.2351645e-02
  2.2447225e-02
 -1.0287918e-01
  8.9560293e-02
  7.9099881e-03
  2.6573089e-01
  8.4269280e-03
  1.7038815e-02
  5.8411732e-02
  6.6956438e-02
 -2.3384282e-01
 -2.0878401e-01
  2.5091022e-03
 -6.8902820e-02
  1.2496886e-01
 -3.9109275e-02
 -1.2436345e-01
 -1.2467498e-02
 -1.0826296e-01
 -9.8548457e-03
  6.3642293e-02
  1.1456482e-01
  3.5993528e-02
 -5.6005139e-02
  1.0672637e-01
  6.1270134e-03
  1.1581832e-01
 -5.5467878e-02
  1.4034010e-01
 -3.5696715e-02
  7.3087169e-03
 -1.5894210e+00
  3.4456125e-01
  1.5649007e-01
 -2.8618598e+00
  7.5281814e-02
  9.1924596e-01
 -7.4940306e-01
  4.6534872e-01
 -8.2435471e-01
 -5.0730750e-02
  1.2530007e+00
 -2.5777352e-01
 -5.8236843e-01
  9.0593576e-02
  8.0832643e-03
  3.2608770e-02
  4.3071352e-02
 -7.3890060e-01
  1.1516200e-02
  8.8722963e-04
  1.3920477e-02
 -1.8069530e-02
 -2.2101368e-01
 -8.4514171e-03
 -1.1655452e-02
 -1.7968991e+00
  5.5337049e-02
  5.9449933e-02
 -3.6893079e-01
 -3.7632552e-03
  6.0533281e-02
  6.0546901e-02
 -1.2649678e-02
 -6.1860763e-02
 -7.8663394e-02
  2.5016123e-02
 -7.5999275e-02
 -1.2964141e-03
 -1.9522657e-01
 -5.4744259e-02
  6.5687105e-02
 -5.9169239e-01
  1.1713704e-02
 -1.0427722e-01
  1.5643814e-01
  3.4495294e-02
  1.2362310e+00
  1.2921573e-01
 -2.9304007e-02
  6.8313897e-02
 -2.4288471e+00
  4.5496988e-01
  5.1671541e-03
 -1.1167537e-01
  1.9057834e-01
 -1.7854584e+00
  2.8732541e-01
  3.3734646e-01
  3.5314407e-02
 -4.5277742e-01
  1.9797196e+00
 -6.5563112e-02
  1.1049647e+00
 -1.2433853e-02
  5.9085909e-02
  1.1890153e-01
 -1.3135517e-01
  1.0492662e-01
 -2.9266320e-02
  5.1370725e-02
  2.1346762e+00
 -3.0808164e-02
 -1.7002998e-01
 -2.0677273e-01
 -6.8539947e-02
 -7.3247439e-01
  2.0333619e-01
  2.3809562e-02
 -3.6166668e-01
 -1.6902781e-01
 -1.1424810e-01
 -5.0233129e-02
  2.0778985e+00
 -1.7295462e-01
  8.9144222e-02
 -1.1577504e-07
 -4.2280719e-01
 -1.4772933e+00
 -3.0087102e-02
 -5.1198028e-02
  1.2286476e-04
 -2.8537500e-01
 -6.4415438e-03
  2.4471134e-02
  3.0831413e-02
  9.0192489e-02
 -3.5633699e-03
  3.7826579e-02
  3.9768707e-02
 -9.4394967e-02
  3.1698868e-01
 -1.2456476e-01
  2.6165197e-02
 -1.4275108e-02
  1.2656260e-02
 -5.7128564e-02
  2.4857134e-02
  7.2719179e-02
  2.3282409e-02
 -5.2512936e-02
  2.6084520e-02
  1.2139546e-02
 -7.8398228e-02
  1.4463515e+00
  1.7952258e-02
 -9.3357302e-03
 -5.8680702e-02
 -5.6031760e-02
 -3.0849045e-02
  4.5001879e-02
 -2.5928745e-01
  3.1530857e-01
 -1.0303372e-01
 -4.7286231e-02
 -2.0404605e-02
  5.5386167e-02
  3.3716891e-02
 -1.1288532e-01
 -5.0710861e-02
  3.4013039e-03
 -9.8048218e-02
  3.4833878e-02
  1.0188880e-01
  1.5061270e-02
  5.3499311e-02
 -5.3109232e-02
 -5.9211016e-02
  1.1741536e-02
  2.9684350e-02
 -1.4798586e-02
 -1.5867217e-01
 -1.7081525e-02
 -1.4214811e-02
  2.8140243e-02
  2.3943789e+00
  1.0669892e-01
  6.5185405e-02
 -2.1873425e-01
 -7.4399799e-02
  1.3896427e-01
  1.0522626e-01
  8.5637746e-03
  6.9892429e-02
  1.6986445e-02
  1.5441115e-03
  2.7230375e-02
 -2.4322870e-01
 -1.8503726e-01
  2.2967771e-02
  2.3967570e-01
 -4.1976027e-02
 -5.6381717e-02
  4.7682341e-02
 -1.9090790e-01
 -4.7599009e-01
 -3.0885506e-01
  4.1387949e-02
 -1.0019495e-01
 -1.7922682e-01
  9.8221457e-01
 -2.7668199e-01
  5.6620389e-02
  1.4391039e-01
  1.5641721e-01
  4.4215236e-02
 -1.1607214e-02
  5.4097563e-02
 -4.0852651e-02
 -1.2247849e-01
 -2.5086902e-02
 -4.5122650e-01
  1.7198911e+00
 -1.6917240e-02
  3.0209270e-01
  2.0251435e-01
  2.7619937e-01
 -2.1033652e-01
  1.4199454e-02
 -1.4862613e-01
 -8.7004118e-02
  1.9926621e-01
 -1.2147948e-01
  1.1459625e+00
 -1.0483488e-01
 -6.3973479e-02
 -8.0825910e-03
 -1.0182402e-01
  7.1726256e-04
 -3.6477502e-02
  6.0737181e-01
 -3.0420525e+00
 -3.6624402e-02
 -3.4534384e-02
  1.3109100e-01
  1.3729106e-01
  6.1500478e-03
  6.3700654e-02
  2.9282132e-02
 -2.4602297e-01
  6.1699271e+00
 -1.2622915e-01
 -1.1684152e-04
  7.7315547e-02
 -4.6512179e-02
  3.6887199e-02
 -1.9668457e-01
 -1.6103743e+00
  7.0742273e-01
  3.3299315e+00
 -2.6767709e+00
  3.0613208e+00
  2.6756027e-01
 -2.4490278e+00
 -1.4448068e+00
 -5.5152571e-01
 -9.2072599e-02
 -6.3769329e-01
  1.5491731e+00
  9.1720521e-01
  2.8377089e-01
 -5.6712484e-01
  1.7230130e+00
  5.1765252e-02
 -1.5005836e-02
  2.7217251e-01
  1.7087525e-01
 -8.7953091e-02
 -1.3625370e-02
  1.3906286e+00
  1.2601026e+00
 -2.7787313e-04
  5.9292592e-02
  5.4069184e-02
  1.1734950e-01
  2.4644880e-01
 -2.4984281e+00
  1.1907090e-01
 -1.2597859e-01
  4.8611242e-01
 -5.1946964e+00
 -4.9101390e-02
 -1.8532326e+00
 -5.5957133e-01
 -3.2774172e+00
 -1.2423178e+01
  4.8925766e-01
 -2.4959617e+00
  6.3888222e-01
  9.5135510e-01
 -2.0744109e-01
  4.1410861e+00
 -4.2106863e-02
 -1.1449265e-02
  1.5086740e-01
  5.6645773e-02
  2.6349969e-02
 -2.9084873e-01
 -2.8053500e-02
  1.2238317e-02
 -1.3327273e-02
  7.2574520e-01
 -1.2580347e+00
  1.2162229e+00
 -2.5061560e+00
  2.4968581e+00
  9.0453304e-02
 -1.6490258e+00
  7.6360840e-01
  1.4787934e+00
  4.8258018e-01
  1.8704836e+00
  2.2367523e+00
  2.1579686e-01
 -2.7776375e+00
  1.6809324e+00
 -6.6375721e-01
  1.6404788e+00
  2.1370642e+00
 -3.0715236e-02
  2.6383421e+00
 -3.3990748e+00
 -6.8519020e-01
 -2.5976214e-01
  2.1260679e+00
  5.8717698e-01
  4.1119751e-01
 -1.2981930e+00
 -9.7189710e-04
  1.4422266e+00
  2.2360884e-02
  6.3368976e-01
 -4.7829947e+00
  1.7857574e-01
 -5.2622020e-01
  1.5445968e+00
 -4.5811315e+00
  5.8231658e-01
 -1.0430156e-01
 -1.6963465e+00
 -4.1877404e-02
  3.3029275e+00
  8.2337362e-01
 -3.6801124e+00
  4.3130484e-01
 -2.1313515e+00
 -9.3815401e-03
  3.4614958e-02
 -4.1250500e-01
 -1.3073255e-01
  1.2371605e-02
 -1.9159043e-01
 -1.3681716e-01
  6.3551269e-02
 -6.2115848e-02
 -1.8398104e+00
  4.2142343e-02
 -9.9821977e-02
  1.4693342e-01
  2.5344786e-01
 -2.4578559e+00
 -2.5213764e+00
 -1.5218081e-01
  2.3316667e+00
  1.3879779e-01
  2.9374027e-01
  4.1004300e+00
 -2.4828879e-02
 -4.0274587e+00
  4.8192358e-01
 -5.9593953e-02
  6.0204234e+00
  3.4139413e-01
 -1.1594959e-01
 -1.0504701e-01
 -1.8091957e-01
  2.6124628e-02
 -1.1403170e-01
  2.1765372e-01
  1.0880440e-01
  2.5481639e-02
 -8.1026316e-01
 -1.9292560e+00
 -7.4524558e-01
  4.3182615e-02
 -1.7076743e+00
 -3.8835329e-01
 -1.1222280e+00
  8.3386980e-02
 -4.0732017e-03
 -3.5785582e-02
 -9.8396167e-02
 -3.9359102e-01
  7.7595584e-02
  2.6409650e-01
  1.3608797e-01
 -2.6474681e+00
 -3.6307678e-01
 -1.7068502e-02
  3.7412837e-03
 -1.7749238e-01
 -2.2314072e-02
 -2.5667018e-01
 -1.8529805e+00
 -3.8943954e+00
 -1.3078542e+00
  4.9930096e-01
 -6.6357672e-01
  4.6966159e-01
 -5.3205389e-01
 -3.3065835e-01
 -2.2682424e+00
  3.7565532e-01
 -9.6856676e-02
 -1.9694327e+00
  1.0092366e+00
  1.0432173e+00
 -2.7583924e-01
 -6.4911216e-02
  2.1741541e-01
  2.2530496e+00
  5.9386957e-01
  3.3445265e+00
 -7.4641365e-01
 -1.4719343e-01
 -5.8818001e-01
 -3.3684939e-01
  2.0793290e+00
 -7.3018938e-01
 -6.1281860e-01
  8.7396008e-01
  6.0288787e-01
 -3.7737629e-01
 -4.8569996e-02
  4.1345575e-01
 -1.9557714e-02
 -2.2127378e-01
  1.2692517e+00
 -7.2814244e-01
 -3.3972433e-01
  5.0265855e-01
  1.3818101e+00
  6.2408961e-02
 -2.0295570e+00
  1.5391619e+00
  7.3779476e-01
 -1.5299127e+00
 -8.8474411e-01
 -6.6646892e-01
  1.7824774e+00
 -9.5414174e-01
 -2.0134428e+00
  1.5813968e-01
  9.6890412e-02
  9.4811648e-02
  8.5179610e-03
 -1.3263165e-03
  1.5070233e-01
  3.9577093e-03
 -8.6541489e-02
 -5.3927951e+00
  1.5385225e-02
 -9.2959709e-02
 -1.7723323e-01
 -1.8385006e-01
  1.0977619e-01
  3.9946564e-02
 -7.9830587e-03
  1.0355270e-02
  2.9388668e-02
 -9.7930372e-02
 -4.7855865e-02
 -1.6731398e-01
 -7.0233375e-02
 -1.7860537e-02
 -1.5401412e-02
  7.8898057e-02
  1.1211269e-01
  3.8257632e-02
  2.1180934e-01
 -4.2523663e-02
 -7.0288111e-03
 -3.5371117e-02
 -1.8115890e-01
  7.2396989e-03
 -2.6537165e-02
 -7.4982576e-02
  2.5139961e-02
 -3.5180092e-02
 -8.1325151e-02
 -1.7090824e-01
  3.4756213e-02
 -2.6583677e-04
  5.2539714e-02
  4.3820009e+00
  2.2025295e-02
 -4.6781782e-02
 -3.1031707e-01
  5.4766377e-03
 -1.3483441e-01
  1.0246510e-01
 -2.7837196e-02
 -4.4618006e+00
  5.1912673e-02
 -4.2010989e-02
 -2.0310594e-01
 -5.0265927e-02
 -1.3626514e-01
 -1.3901399e+00
 -1.8458115e-05
  5.8802884e-02
  4.8086908e-02
 -1.1934474e+00
 -6.0640432e-02
 -1.4225985e-01
  3.5356605e-01
 -2.7007337e+00
  2.2841489e-02
 -1.2137417e-01
 -2.9495140e-03
 -8.8183671e-02
 -4.9003056e-01
 -1.0782952e-01
  9.1543220e-02
 -2.5943150e-03
 -6.9718108e-02
 -1.7665485e-01
  1.2346067e-01
  6.8102419e-02
 -9.1031983e-02
  5.1530402e-02
  8.7427191e-02
 -6.9136359e-02
 -1.3786741e-02
 -1.7228819e+00
  4.3814648e-02
  1.6366316e-02
 -4.5713447e-03
 -4.1537294e-03
  8.7053031e-03
 -7.0265144e-02
 -7.3163509e-02
  1.8886469e-02
  1.5406348e-02
  5.8653280e-02
  4.0042719e-01
 -1.5578897e-01
  2.6414396e-02
  1.9136593e-02
 -6.6325003e-03
  5.2607012e-01
 -3.6564611e-02
  6.6651702e-02
  1.9365267e-01
 -5.6350496e-02
 -1.8204028e-02
 -4.0997338e-02
  2.3056270e-01
  3.6089242e-02
  1.0770302e-02
 -2.2676666e+00
 -1.5610913e-02
  2.4102384e-04
  1.3857216e+00
 -3.5468376e+00
  1.6200914e+00
  8.5971260e-01
 -1.7167480e+00
  1.6458608e+00
  1.5396199e-01
  1.7169836e+00
 -3.0907590e+00
  3.9009911e-01
  4.3172635e-02
 -2.0472600e-01
  4.1649327e-01
 -5.2605981e-01
 -7.1959448e-01
 -1.8905742e-01
  1.3173603e-02
 -2.2552887e-02
 -1.3616261e-01
  3.2388647e+00
 -3.9089939e-01
  6.7361608e-02
 -1.1539251e-02
 -2.0194464e+00
  9.1278218e-03
 -1.7441802e-02
  1.9795722e-01
  1.2769833e+00
 -3.2943919e-02
 -3.8136104e-01
  2.0891882e-02
 -7.7819884e-02
 -8.4576625e-01
 -2.5793284e-02
  7.1884692e-02
  3.3632193e-02
  8.5568690e-01
  3.5262685e-02
 -3.2216778e-01
  3.0578819e-01
 -4.6775859e-02
 -6.1563990e-04
  1.0601350e-01
 -2.1065429e-02
 -1.3818678e-02
 -9.3470834e-02
  1.0098328e-01
 -1.3555825e-01
 -1.6730838e-02
  1.2224534e-02
  1.1706217e-01
 -2.7861245e-02
  5.9822060e-02
 -4.1010164e-02
  5.8585529e+00
 -5.6865830e+00
 -2.5285835e+00
  7.4276841e-01
  3.1614456e-01
  3.5691774e+00
  6.8046675e+00
  2.5372844e+00
  1.7799963e+00
  1.1029442e-01
  6.4309075e-02
 -1.2964001e-01
  1.2463769e-03
  2.7587414e-03
 -5.7406422e-02
 -1.2686209e-01
  8.5473612e-02
 -1.1810185e-03
 -1.7416649e+00
 -1.6829589e-01
  5.1030171e-01
 -4.1318166e-01
 -4.9672399e-02
 -5.2765343e-02
  1.0813975e-01
  1.7622558e-02
 -7.8973174e-02
  2.8907755e-01
  1.5813465e-01
  2.3137319e+00
  1.7430007e-01
  1.0935409e-01
 -7.3804028e-02
  1.6556600e-01
  1.8175772e-01
 -2.3372890e-02
  3.2437508e+00
 -1.9055789e-02
 -4.1528355e-02
  7.9109333e-02
  4.8414756e-02
  3.1472228e-02
  3.8693815e-01
  7.7176400e-02
  1.3445367e-01
  3.7855445e-04
  1.2570799e-02
 -4.4463877e-02
  8.0327332e-02
 -1.0885452e-01
 -9.0025073e-01
  3.0022629e-02
 -9.2100389e-02
  1.4092910e-01
  2.6797584e-01
 -1.3124517e-01
  3.7450552e-02
 -1.8201117e-01
  1.1603279e-01
  2.8321156e-01
 -3.9920770e-02
 -1.3811499e+00
  1.7435147e-01
  2.2007647e-01
  3.6039796e-02
 -9.4930632e-03
  1.1165620e-01
 -7.1730971e-02
 -6.1810724e-02
 -1.2297758e-01
 -2.4393995e-01
 -1.1448286e-02
 -2.7343428e-02
 -1.2082343e-01
  1.2158053e-01
  3.4723178e-02
  1.7836680e-01
  7.3154099e-02
  6.0821779e-02
 -1.2609448e-01
 -8.6475953e-02
 -3.1149101e-02
  2.8733704e-02
 -3.6357078e-03
 -2.0122901e-02
 -5.1190302e-04
  2.7989985e-02
  2.2439575e+00
 -2.6513530e-02
  1.1645009e-01
  1.3194273e-01
  1.7945634e-02
 -4.3149482e-02
 -7.6095097e-02
 -6.1589785e+00
  1.5200301e-01
  5.6539778e-02
 -6.0920767e-02
  8.4468961e-02
  1.4654501e-01
  3.3694595e-02
 -2.4228409e-02
 -4.2113476e-02
 -6.6395096e-02
 -9.2972890e-03
 -2.7556695e-02
 -3.9565153e-02
 -2.7293181e-01
 -1.4077199e+00
 -2.0110853e-01
 -2.9177827e-01
 -5.3486288e-01
 -5.3124559e-01
 -2.7086088e-01
  2.8492326e-01
  5.0940610e-02
 -2.7225655e-01
  1.4193422e-01
 -1.2797898e-01
  5.2109692e-02
  1.0055555e-01
 -3.4870929e-03
  8.7286815e-02
 -1.7376299e-01
  5.6493174e-02
 -3.7730869e-02
  7.6686835e-01
 -4.2367829e-03
  8.1283361e-02
  3.1883966e-02
  2.2564781e-01
  3.8582452e-02
 -8.1607528e-02
  1.9932687e-02
 -1.8506056e-01
 -1.8077266e-01
 -5.6478363e-03
  1.8288322e-01
  5.3276327e-02
  1.4740135e-01
  3.3909027e-03
 -2.0894591e-02
 -3.2723870e-02
  5.6194399e-02
 -1.4774801e-01
 -2.1225297e-01
 -3.1081347e-02
 -5.2526009e-01
  7.2172746e-02
 -1.9766520e-01
  2.7943711e+00
 -1.7686829e-02
 -5.7700500e-03
  2.3493701e-01
 -5.4163780e-02
  9.7207613e-02
 -5.5122059e-02
  3.7962802e-02
 -3.0838711e-02
 -5.0462034e-02
  4.0450439e-02
 -1.4039581e-01
  4.1138169e-01
  3.0160096e-01
  8.6084753e-02
  8.1825316e-02
  2.1460246e-02
 -6.3166964e-01
  3.1873878e-02
  3.2878149e-01
 -3.2178327e-02
  6.6406183e+00
 -2.2891575e-01
 -2.9486063e-01
 -1.8459948e-02
 -1.8288903e-02
 -2.2747139e-02
 -1.5058640e-01
  8.5107289e-02
 -1.2442815e-01
  1.1708535e-01
  1.4633814e-01
 -2.0196451e-02
  3.2721814e-02
 -2.5075130e-02
 -8.0183307e-03
  3.7344382e-03
  3.3863574e-02
  3.4616736e-01
 -4.0011007e-02
  1.0515712e-03
 -4.6018343e-02
  3.8964283e+00
  8.1684478e-02
  2.4331424e-02
 -1.0843997e-02
 -8.0044359e-02
  2.4920414e-01
  2.0765109e-02
  1.4829151e-02
  3.8910393e-02
  4.3014344e-02
  2.0471081e-02
  3.8094629e-02
  1.2358050e-03
 -2.7567413e-02
 -4.5364518e-03
 -2.3201109e-01
  8.2534440e-02
 -2.8134476e-02
  9.4084712e-03
 -1.7515939e+00
  6.2182896e-02
 -9.3611553e-02
  3.8327195e-02
  4.3218996e-02
  7.1378924e-02
  1.5856663e-02
 -6.3414387e-02
  3.3390648e+00
  5.4481714e-03
  1.8338351e+00
  3.6143976e-01
  1.2728259e-01
 -5.0566640e-02
 -3.2072820e-02
  2.9275954e-02
  7.0843115e-02
  9.7789317e-02
  1.7127883e-01
  2.0954111e-01
 -7.7666986e-01
 -7.7803154e-03
 -9.2204604e-03
  3.6453620e-02
 -1.0329095e-02
 -1.9956209e-02
  3.2247135e-03
 -2.0093720e+00
  7.1053085e+00
  2.5533020e-02
 -7.3933275e-03
  1.3873309e-01
  2.9097371e-02
 -7.9109132e-02
 -8.3537683e-02
 -7.9247085e-03
 -6.1423173e-03
  1.6323777e-01
 -6.1319724e-02
 -1.7168403e-01
 -1.4138916e-01
 -1.5302794e-02
  3.7803717e+00
  1.3424022e-01
  8.5229114e-02
  2.5423015e-02
  2.3438995e-01
 -5.9762452e-02
  5.4916687e-02
 -5.4578919e-02
  1.5590703e-01
 -1.9192520e-01
  2.5755389e-02
 -7.2802238e-02
 -3.8587056e-02
  1.5091617e-02
  5.2908167e-02
  2.5968900e-02
 -2.6901551e-02
 -6.2838383e-02
  2.7208026e-02
 -3.1795025e-01
 -8.6792074e-03
  1.1157855e-02
  8.8395584e-01
 -2.6684746e-02
  1.8376725e-02
  3.9967168e-02
 -5.3073503e-02
 -3.6843471e-02
  3.7718277e-02
  8.2801700e-02
 -9.7042635e-02
  2.4392858e-02
  9.3888305e-03
  1.4867687e-01
  8.9250736e-02
 -3.8132491e+00
 -1.2977710e-02
  2.3777273e-02
  2.1410473e-02
 -1.7729834e-02
  9.7065851e-02
  6.4859018e-02
 -3.2454584e-02
  7.0612426e-03
  3.5947561e-02
  3.4520626e-02
  2.9659368e-02
 -4.9901596e-01
  1.2007803e-01
  1.6125630e+00
  3.5524093e-02
 -8.2967305e-01
 -6.5663449e-02
 -1.0883624e-01
 -3.4025468e-02
  1.0745870e-01
  3.1248221e-02
 -2.6818477e-02
  7.2369132e+00
  2.9248558e-03
  1.9900588e-02
 -1.7131727e-02
 -1.2635220e-02
  2.0010110e-02
  1.2749708e-01
 -3.4037158e-03
  4.4796068e-02
  2.0409664e-02
 -5.4178234e-02
  3.3086548e+00
 -9.9032782e-02
  3.4484152e-02
  1.6844219e-01
  2.6087976e-01
  4.4185046e-02
 -6.7190021e-02
 -2.0503804e-01
 -1.1749962e-01
  8.3382256e-02
  3.5862733e-02
 -1.1817881e-01
  3.3635548e-01
  1.9359657e-01
  4.7912836e-02
  1.3600790e-03
 -1.1530122e-02
 -1.6053030e-01
 -9.0908306e-03
  1.4995804e-01
 -1.0656296e+00
  4.2796228e-03
 -6.1138566e-03
  1.2535411e-03
  1.9253232e-01
 -7.5207025e-02
 -3.8270812e-02
 -9.5234606e-03
  1.0603837e-01
  1.2995255e-01
 -5.6174863e-03
 -3.4375258e-02
 -1.5823819e-01
 -8.1049792e-02
  4.9238167e+00
  8.9068882e-02
  1.3044828e-02
  1.1290845e-01
 -1.5469100e-01
  2.0834159e-02
 -3.5912562e-02
 -1.0166784e-01
 -4.5510253e-01
 -5.7051551e-02
 -4.1768614e-02
 -1.0256852e+00
  1.9547283e-03
 -5.8057953e-02
 -6.9281869e-02
  5.5475160e-05
  3.7080251e-02
  6.0971141e-02
 -6.1928097e-02
 -1.1113270e-02
 -2.0357485e-01
 -1.1730484e-02
 -4.2623695e-02
 -8.1476882e-02
  2.3570570e-01
 -7.3066824e-03
 -3.1845972e-02
 -6.3434309e-01
 -4.0596120e-02
  4.2931223e-01
 -1.3606140e-01
  1.1144162e-01
  3.0358689e-02
  7.8225814e-02
 -1.8362099e-02
 -1.7127176e-04
  5.4477017e-02
 -7.5281456e-02
  4.6178717e-02
 -2.5326794e-03
  6.1537400e-02
  2.4797140e-02
 -2.5184851e-02
  1.1515045e-01
 -1.0764106e-01
 -9.3651660e-02
 -4.8043683e-02
  5.2825503e+00
 -3.5929525e-01
 -6.8086677e+00
 -1.8153197e-01
  1.4200760e-01
 -5.5414993e-02
 -4.0482301e-01
 -1.4328991e-01
 -1.9998290e-02
 -2.4622910e-02
  9.9861950e-02
  4.7623817e-02
  1.0174351e+00
 -3.6521751e-02
  1.7254254e-01
 -8.8654943e-02
  1.1807257e-01
 -2.6170036e-03
 -2.2027468e-02
 -1.2891123e-01
 -4.0204646e-03
 -5.1186014e-02
  1.6479613e-03
 -3.5918842e-03
 -5.9729058e-02
  3.0087028e-03
  1.6696087e-01
 -2.7405100e-02
 -1.0751517e-01
 -5.7493601e-02
  2.8199021e-02
  1.0621016e-01
 -2.9583558e-02
 -2.4098460e-02
  5.2180853e+00
  2.0875275e-01
  1.6518496e-02
  8.7319985e-02
  3.3991218e-02
 -5.4866523e-02
  1.6517396e-03
 -5.4100558e-02
 -1.2549799e+01
 -3.8847785e-02
 -2.5069504e+00
 -1.3204482e-01
 -5.0181042e-02
  1.7576943e-01
 -1.9911435e-03
  1.2370952e-01
 -1.8352921e-01
  1.1088993e-01
  1.0604303e-01
 -4.6734619e-01
  1.4641006e-01
  1.0654680e-01
  4.0885925e-02
  1.8131328e-01
  5.2299094e-03
 -7.1656473e-02
  1.0813501e-01
  8.4066764e-02
  1.8817255e+00
 -7.2757821e-03
 -3.3522841e-02
  5.3116415e-02
 -2.9204652e-02
  7.8678958e-02
  5.4737244e+00
  5.1275183e-02
  7.2651997e-02
  5.9246691e-03
 -6.9945164e-02
 -9.8898960e-03
 -5.9342487e-03
  4.1944832e-02
 -5.8787402e-02
 -1.3088724e-01
  5.4708910e-03
 -9.6092612e-02
